%YAML:1.0
my_svm: !!opencv-ml-svm
   svm_type: C_SVC
   kernel: { type:LINEAR }
   C: 1.
   term_criteria: { epsilon:1.1920928955078125e-07, iterations:1000 }
   var_all: 30276
   var_count: 30276
   class_count: 2
   class_labels: !!opencv-matrix
      rows: 1
      cols: 2
      dt: i
      data: [ 0, 1 ]
   sv_total: 1
   support_vectors:
      - [ -6.72856625e-03, -5.17699448e-03, -6.13017241e-03,
          -1.89183152e-03, 1.42465648e-03, 6.34770282e-03,
          5.93494216e-04, 6.70346839e-04, -1.95803656e-03,
          -4.45596036e-03, -9.52206273e-03, -7.35073863e-03,
          4.36488958e-03, 5.13903797e-03, 6.13541529e-03, 2.17910085e-04,
          -2.34965375e-03, -1.91054272e-03, -8.58886354e-03,
          -6.38093753e-03, -3.26656830e-03, 4.44614096e-04,
          4.29485878e-03, 1.27793541e-02, 8.16031315e-05,
          -1.96859892e-03, -4.42577153e-03, -7.68570462e-03,
          -1.00077698e-02, -4.92888363e-03, -3.35870689e-04,
          3.90026416e-03, 8.88294913e-03, 4.27149748e-03,
          -5.89326536e-03, -4.16384265e-03, 4.05520521e-04,
          -5.16379997e-03, -5.83595317e-03, 1.50530599e-03,
          7.17143482e-03, 3.43174115e-03, -4.25071863e-04,
          -1.14028262e-05, 2.06961157e-03, 2.68582650e-03,
          2.20432505e-03, -3.94279324e-03, -1.51895650e-03,
          -4.37013165e-04, 2.64725694e-03, -4.47969558e-03,
          9.21551720e-04, 5.85806090e-03, -1.07839063e-03,
          -4.63216007e-03, -7.14592403e-03, -2.34879524e-04,
          2.42475281e-03, 7.39542814e-03, 4.35759593e-03,
          -2.05791509e-03, 1.23828315e-04, 2.48179981e-03,
          2.48759286e-03, -4.81346343e-03, -3.49869719e-03,
          -2.30422549e-04, 5.87369269e-03, -1.12791196e-03,
          -2.46919692e-03, 3.21030995e-04, 5.67996409e-04,
          6.38254802e-04, -1.99683753e-04, -2.27795797e-03,
          2.97806598e-03, 6.10748446e-03, -3.49085056e-03,
          8.84820824e-04, 4.17948375e-03, -8.21714848e-03,
          -8.52720626e-03, -7.20907096e-03, -3.19882156e-03,
          -2.20016716e-03, -5.65858267e-04, -2.95671937e-03,
          2.23178579e-03, -6.61794934e-03, 2.33487529e-03,
          1.57607358e-03, -1.33080129e-03, -5.60329389e-03,
          7.29357591e-03, 6.57024793e-03, 8.61871522e-04, 5.36730920e-04,
          6.83541177e-04, -3.12767969e-03, -5.60006313e-03,
          -4.28153435e-03, -2.92143435e-03, 2.41779000e-03,
          3.02174105e-03, -1.08473457e-03, -1.22276612e-03,
          -4.45334986e-03, -2.22045626e-03, -4.30958252e-03,
          1.32817181e-03, 2.17206730e-03, 4.69273143e-03,
          -1.95146760e-03, -4.88487894e-05, 2.96999281e-03,
          -2.64094630e-03, -1.25284458e-03, 5.86820068e-04,
          3.21758352e-03, -5.20354486e-04, 1.47006102e-03,
          5.38655368e-05, -5.18048299e-04, 2.30559846e-03,
          4.52219741e-04, -1.57957012e-03, -2.55740364e-03,
          -8.19268229e-04, -6.19597558e-04, 1.17254471e-02,
          -4.03315556e-04, -2.01963377e-03, -5.36320964e-04,
          -3.04069649e-03, 4.71375737e-04, -3.71836562e-04,
          -9.49727558e-03, -1.67713792e-03, 3.26197571e-03,
          -2.95807421e-03, -2.58796383e-03, -9.63532715e-04,
          1.96494884e-03, -3.04307928e-03, 9.69590968e-04,
          8.25486844e-04, -1.38893246e-03, -1.30157464e-03,
          4.55620605e-03, 6.88196253e-03, 6.75883377e-03,
          -5.48866461e-04, -5.69292484e-03, 2.03406787e-03,
          1.99888134e-03, -2.56466051e-03, -2.22617574e-03,
          6.27831928e-03, 1.17784310e-02, 1.18369143e-02,
          -2.61661876e-03, -2.42446060e-03, -3.69941699e-03,
          -1.02547733e-02, -1.33433018e-03, -3.90690053e-03,
          -2.91802036e-03, 4.40995954e-03, 5.94937010e-03,
          1.83752424e-03, -5.36464248e-03, -4.64455225e-03,
          -5.05779264e-03, -2.93383375e-03, 9.81251476e-04,
          3.69193661e-03, 5.02525037e-03, 8.28215387e-03,
          -4.39856434e-03, -7.31206499e-03, -2.14279327e-03,
          -7.43201701e-03, -6.06043776e-03, 2.27417797e-03,
          8.50265659e-03, 9.16715804e-03, 1.02574648e-02, 7.37982104e-04,
          -5.35488315e-03, -5.01376903e-03, -8.28004349e-03,
          -9.34311748e-03, -4.87491628e-03, 6.37353305e-03,
          8.55543092e-03, 6.16131676e-03, -1.40150334e-03,
          -7.61326496e-03, -6.64036954e-03, -8.74019414e-03,
          -7.93512503e-04, 8.77704658e-03, 8.89674854e-03,
          2.10639718e-03, 4.17032698e-03, -2.66427244e-03,
          -2.42935889e-03, -4.23344504e-03, -5.05359797e-03,
          -4.55278018e-03, 1.08456274e-03, 1.98978186e-03,
          -1.60371041e-04, 6.84732862e-04, -2.20302772e-03,
          -1.26508914e-03, -3.03098583e-03, 1.85063027e-03,
          3.54139693e-03, -9.29773599e-03, 4.00280021e-03,
          5.14814537e-03, 4.16621007e-03, -2.48801289e-03,
          -1.32464455e-03, -2.35487428e-03, 3.87538900e-03,
          4.72734123e-03, 1.61298772e-03, -2.17794371e-03,
          2.09191767e-03, 8.36492167e-04, -3.29944934e-03,
          2.74574413e-05, -1.56016892e-03, 3.47930612e-03,
          4.68983781e-03, -6.00176689e-04, -4.30312194e-03,
          -1.87745772e-03, 2.27446109e-03, 9.32100695e-04,
          3.96179641e-03, -4.32998594e-03, 4.58832365e-03,
          -1.98624656e-03, -6.07660785e-03, -7.02900533e-03,
          -6.06343383e-04, 3.62509652e-03, 4.23359592e-03,
          3.62111675e-03, 1.35981338e-03, 3.69045720e-03, 2.22748239e-03,
          2.74661323e-03, -6.27549947e-04, 8.30782205e-03,
          2.41083000e-03, 8.38532796e-05, -2.83633056e-03,
          -1.33608212e-03, 2.24638125e-03, -2.68015172e-03,
          -3.30553710e-04, -5.00907590e-05, 7.23506790e-03,
          -1.01904687e-03, -7.08595011e-03, 5.49947796e-03,
          1.82649191e-03, 5.78565570e-03, -2.92444951e-03,
          -4.46075201e-03, -8.08618125e-03, 4.45017172e-03,
          4.50032204e-03, 4.09293221e-03, 3.97398463e-03, 2.83010886e-03,
          1.28990656e-03, -7.12118018e-03, -3.57963587e-03,
          -4.29339474e-03, 7.04817334e-03, 2.30324594e-03,
          1.05518091e-03, -6.91918796e-03, -3.39814369e-03,
          3.00253206e-03, 3.88749817e-04, 8.51410208e-04, 1.26304134e-04,
          6.89706858e-03, -7.06649385e-04, -9.20295157e-03,
          -8.94582365e-03, -6.73046848e-03, -4.01033228e-03,
          8.34845006e-03, 4.06370731e-03, 5.87539794e-03, 9.58554074e-03,
          -1.58306514e-03, -8.64958856e-03, -1.36243540e-03,
          3.06565198e-04, 3.00101528e-04, -9.26244189e-04,
          -1.58936973e-03, 2.08510645e-03, 6.55627111e-03,
          -3.67309875e-03, -5.57894958e-03, -4.59217979e-03,
          2.25022389e-03, 4.74826060e-03, 4.74589830e-03, 5.72124869e-03,
          2.27290113e-03, 1.08370772e-02, -2.85382266e-03,
          -6.46194676e-03, -4.12630523e-03, -6.99390844e-03,
          -6.81734644e-03, 4.33640322e-03, 5.72413905e-04,
          3.02520394e-03, 5.78634301e-03, 7.25195860e-04,
          -6.85430272e-03, -1.99453742e-03, -2.61186552e-03,
          -5.32198930e-03, -1.22055796e-03, -3.60030355e-03,
          3.32430762e-04, 6.20839011e-04, -2.83265777e-04,
          -1.73675944e-03, -1.32141286e-03, -3.90818925e-04,
          -1.63360173e-03, 2.51388738e-05, -5.16562816e-03,
          -1.27514289e-03, 8.76924023e-03, 4.92008636e-03,
          -3.47211375e-03, 5.47852321e-03, 5.52322110e-03,
          3.76667152e-03, -2.61380081e-03, -6.25749771e-03,
          -5.15792659e-03, 4.64435434e-03, 6.85674325e-03,
          5.98696293e-03, -1.60204410e-03, -8.39648768e-04,
          3.99560988e-04, 9.31944698e-04, -5.52239968e-03,
          -2.38637719e-03, 1.43573317e-03, -2.16116384e-03,
          -8.35856132e-04, -7.26646045e-04, 2.32539559e-03,
          9.68819018e-03, 1.17456503e-02, 2.47716508e-03,
          -8.49304348e-03, -5.14863245e-03, -1.02277994e-02,
          -4.05921228e-03, 2.82653770e-03, 1.82094588e-03,
          5.17427130e-03, 9.56502859e-04, -8.59517697e-03,
          -5.10020461e-03, 1.34493562e-03, 3.51544726e-03,
          5.68716088e-03, 3.01555218e-03, 4.56451811e-03, 1.12770824e-02,
          7.78206298e-03, -2.30267120e-04, -6.77920459e-03,
          -3.92302498e-03, -9.50000598e-04, 5.28626889e-03,
          -8.95029958e-03, 3.05484835e-04, 8.94098636e-03,
          1.37542291e-02, 5.77895064e-03, -9.61057376e-04,
          -2.26578466e-03, -7.78805371e-03, -1.37899956e-02,
          -5.26008476e-03, 4.11208998e-03, 1.02687571e-02,
          1.22390762e-02, 6.05198136e-03, 6.17120415e-03, 5.36624691e-04,
          -4.65083960e-03, -1.22353686e-02, -2.66967836e-04,
          7.36738183e-03, 6.74547162e-03, 1.17513128e-02, 4.56923293e-03,
          -3.69895221e-04, -5.52292541e-03, -5.04166353e-03,
          -2.52699945e-03, -2.19755387e-03, 7.88664538e-03,
          6.45985408e-03, 9.32367984e-03, 3.88710178e-03, 9.88968066e-04,
          -4.38232580e-03, -7.14284647e-03, -7.08128046e-03,
          -3.80089111e-03, 5.57512091e-03, 8.94356426e-03,
          6.14456879e-03, -2.68971489e-04, 7.54088536e-03,
          3.72226210e-03, -5.19395201e-03, -1.16561288e-02,
          -1.10306707e-03, 4.24028188e-03, 6.16686000e-03,
          2.49593664e-04, -3.50981904e-03, 7.10623013e-03,
          7.56294699e-03, -2.14053271e-03, -8.69930256e-03,
          -8.25119554e-04, 3.56441294e-03, 5.51305152e-03,
          7.16228690e-03, -7.25662627e-04, -8.50952201e-05,
          5.36701235e-04, -5.02647227e-03, -3.00036510e-03,
          1.16749259e-03, 5.18817781e-03, 6.30217418e-03, 4.45328373e-03,
          3.43330088e-03, 1.59109384e-03, 9.08900332e-03, 4.23549674e-04,
          -1.74013339e-03, -1.57394120e-03, 1.36924547e-03,
          2.07151962e-03, 4.25552158e-03, 1.38259353e-03, 4.12609102e-03,
          1.00935418e-02, 2.98682740e-03, -3.89292929e-03,
          -1.13023038e-03, 2.06182522e-04, 3.61522962e-03,
          7.76110636e-03, 3.54469265e-03, -9.55967512e-03,
          -4.11202291e-06, 1.10425637e-03, 2.63991207e-03,
          -1.68980594e-04, 4.25335392e-03, 7.97281042e-04,
          1.91793777e-03, 1.90099748e-03, 9.75229370e-04, 5.93508501e-03,
          2.35907687e-03, 1.73562358e-03, -8.07178323e-04,
          1.09413173e-03, 1.69643562e-03, 1.63411314e-03, 1.40810665e-03,
          -6.09279377e-03, -1.17476552e-03, 3.76235996e-03,
          2.24934518e-03, -5.04125434e-04, 4.95398359e-04,
          9.26729292e-03, 1.16930148e-02, 3.00338469e-03,
          -7.72708468e-03, -8.19875626e-04, 1.42616685e-03,
          1.44696375e-03, 3.74756381e-03, 5.00490610e-03, 1.00954464e-02,
          1.10139614e-02, 3.85759119e-03, -4.65397490e-03,
          -1.57634274e-03, 4.99970338e-04, 1.97649514e-03,
          -1.27587211e-03, -3.20539274e-03, 9.74136288e-04,
          7.09163677e-03, 2.47266167e-03, -8.21780600e-03,
          -6.72409497e-03, -5.06061641e-03, -3.84655985e-04,
          3.06912418e-03, -1.67040457e-03, 2.56284629e-03,
          2.07061041e-03, 1.35738100e-03, -2.17741402e-03,
          -1.11131929e-03, -5.84902242e-03, -2.43737688e-03,
          3.52352951e-03, 1.91442179e-03, 9.92135517e-03, 5.20251691e-03,
          1.47430995e-03, -4.24806913e-03, -3.49287363e-03,
          -1.09723129e-03, 6.31020695e-04, 1.86558242e-03,
          7.08359818e-04, 2.51153368e-03, 7.95978412e-04, 1.90802838e-03,
          -1.06293778e-03, 7.49066297e-04, -4.84580523e-04,
          -2.49663997e-03, 3.34425247e-03, 1.92232442e-03,
          6.71282271e-03, 4.54638666e-03, 2.36637611e-03,
          -5.03226649e-03, 1.85686816e-03, -2.69716233e-03,
          -2.01781024e-03, -9.91810812e-04, -9.00828891e-05,
          3.07595095e-04, -1.03620731e-03, 1.88280025e-03,
          -2.85932492e-03, 2.78796325e-03, -3.94861633e-03,
          -1.10363169e-03, 3.92869289e-04, -1.72173954e-03,
          -4.82396316e-03, -4.28154692e-03, 1.81614421e-03,
          -3.04443086e-03, -8.25365350e-05, -5.30801713e-03,
          -4.46521863e-03, 2.67647905e-03, 1.06525898e-04,
          5.39247761e-04, 4.45070071e-03, 6.33176789e-03,
          -7.98060745e-03, -9.52932425e-03, -7.89008476e-03,
          -5.08212904e-03, -1.25775987e-03, -1.49966578e-03,
          -3.17164953e-03, -5.97164268e-03, 7.91636948e-03,
          9.39202320e-04, 1.52512058e-03, -1.85976026e-03,
          -1.29370659e-03, -2.04148702e-03, -7.83219002e-04,
          -2.38883385e-05, 3.28899175e-03, 9.83515941e-03,
          -3.64941964e-03, -3.02728382e-03, -3.68269393e-03,
          -1.02889547e-02, 7.60469772e-03, 3.23569891e-03,
          2.83261249e-03, 5.98445395e-03, 2.77107611e-04,
          -9.74029023e-03, -7.92402029e-03, -2.11737049e-03,
          2.98914267e-04, 3.19859060e-03, 7.14585837e-03, 2.11963616e-03,
          2.03983320e-04, -1.64870697e-03, -8.82348046e-03,
          1.41094308e-04, -2.24553794e-03, -2.15443876e-03,
          1.41706027e-03, 2.21258611e-03, 2.74372916e-03,
          -3.74395563e-03, 1.00658694e-03, -9.78133455e-03,
          -5.19398693e-03, -7.62699288e-04, -5.38455322e-03,
          5.55238128e-03, 9.86447092e-03, 6.50316849e-03,
          -4.60748421e-03, -4.81241941e-03, -9.65656806e-03,
          -4.45209723e-03, -4.19400446e-03, -1.96440332e-03,
          -2.59639369e-03, 2.33284524e-03, -8.18137414e-05,
          3.78330098e-03, -6.78363198e-04, -1.81728892e-03,
          -2.16427958e-04, -3.77070880e-03, -9.04516224e-03,
          -2.76874891e-03, 1.16193783e-03, 5.14375838e-03,
          3.19988397e-03, -4.15378530e-03, -5.18110115e-03,
          -2.26629223e-03, -2.21518613e-03, -5.43059455e-03,
          1.32876867e-03, 9.44665633e-03, 3.25338938e-03, 3.97739932e-03,
          1.50028980e-04, -2.13331031e-03, -3.19261057e-03,
          -5.70928259e-03, -9.16153193e-03, -6.36105833e-04,
          5.16255014e-03, 1.53676816e-03, -2.89272750e-04,
          -4.40195249e-03, -3.81226814e-03, -3.38965328e-03,
          1.06713026e-06, -7.44672259e-03, 4.61820792e-03,
          4.55692085e-03, 8.33512936e-03, -8.08508557e-05,
          -4.23265481e-03, -2.81143258e-03, 1.49306224e-03,
          3.63668753e-03, 2.78979889e-03, -3.59684019e-03,
          2.76556984e-03, 8.15351773e-03, 1.93569262e-03,
          -2.74299807e-03, -4.60874103e-03, -1.75811606e-03,
          -1.86722563e-03, -5.60172275e-03, 4.02449491e-03,
          4.49271919e-03, 1.51502143e-03, -8.98785423e-03,
          -9.89498850e-03, 2.86856689e-03, 2.02937005e-03,
          4.61260742e-03, 2.89574102e-03, -2.21243664e-03,
          4.62970510e-03, 6.82849670e-03, -2.57859332e-03,
          -3.12150875e-03, 1.41951372e-04, 2.52247043e-03,
          1.01949403e-03, -5.05417399e-03, -5.94567508e-03,
          -7.45986006e-04, 3.20175546e-03, 2.42292695e-03,
          3.15569760e-03, -7.24612875e-03, -5.50970249e-03,
          -5.61608141e-03, -6.49620080e-03, -2.06104200e-03,
          -1.84032379e-03, -3.44598829e-03, 2.10346752e-05,
          1.39461059e-04, -1.12294517e-02, -5.44384774e-03,
          8.22575297e-04, 1.07852521e-03, -4.33853921e-03,
          1.30208512e-03, 5.09992288e-03, -2.14103537e-04,
          4.94167767e-03, -5.84495859e-03, -3.70345591e-03,
          2.66829593e-04, -3.67597141e-03, 1.16355636e-03,
          3.42411990e-03, 4.84088610e-04, -4.00922308e-03,
          -4.31398023e-03, -8.58123600e-03, -2.78877583e-03,
          3.09290108e-03, 7.85631535e-04, -5.18840330e-04,
          2.47224292e-04, 1.13531842e-03, -3.63482884e-03,
          -3.84421740e-03, -1.17485449e-02, 2.00720257e-04,
          4.50818613e-03, -1.33202397e-04, -2.73369020e-03,
          6.46967732e-04, 6.10223389e-04, -4.43139300e-03,
          -4.96793538e-03, -6.85077580e-03, 1.48656406e-03,
          7.21814763e-03, 4.56564303e-04, 3.24348710e-03, 4.85627446e-03,
          8.52915749e-04, -7.09931320e-03, -7.66156241e-03,
          -8.75772536e-03, -2.54680542e-03, 3.70328012e-03,
          3.48623772e-03, 1.64572429e-03, -3.36742168e-03,
          1.35189097e-03, -2.14477582e-03, -4.60181292e-03,
          -7.19126360e-03, -1.43963133e-03, 3.60831968e-03,
          4.65753535e-03, -9.89943859e-04, -3.19953077e-04,
          -7.08652707e-03, -6.32440252e-03, -6.20434619e-03,
          -5.74214011e-03, -7.18376366e-04, 4.20215167e-03,
          -1.69421383e-03, 5.50290709e-03, 2.39828322e-03,
          -6.60813227e-03, -6.06494118e-03, -5.61539503e-03,
          1.73406291e-03, 5.55387698e-03, 8.20746738e-03, 2.65081669e-03,
          -1.24758692e-03, -1.16560014e-03, 1.04843661e-04,
          -1.27017265e-03, -5.67532936e-03, -6.89609209e-03,
          -5.92118083e-03, -2.82016746e-03, -1.31427986e-03,
          2.90812715e-03, 5.87576348e-03, 1.92348845e-03,
          -5.62539091e-03, -9.27346665e-03, -2.49806815e-03,
          2.44018855e-03, -4.25562961e-03, -7.03557394e-04,
          4.91103623e-03, 1.81834598e-03, -1.27991592e-03,
          -5.88781340e-03, -8.70480575e-03, -5.69539703e-03,
          6.19277963e-03, 2.79273721e-03, 2.42315209e-03, 2.83486932e-03,
          2.25719553e-03, 7.85120181e-04, 1.09242520e-03,
          -1.00368299e-02, -5.25446795e-03, 3.18472739e-03,
          1.72695948e-03, 6.80569501e-04, 1.50611682e-03, 1.68710039e-03,
          -1.88632333e-03, -1.37480441e-02, -1.19119361e-02,
          -1.84009538e-03, 8.12646467e-03, -1.04029221e-03,
          -2.24094768e-03, 1.76306488e-03, -4.66362282e-04,
          -5.51227201e-03, -6.24195905e-03, -9.64559242e-03,
          -3.98327503e-03, 3.00679100e-03, 3.97769362e-03,
          3.04012490e-03, 2.93461489e-03, 2.21650279e-03,
          -4.54352732e-04, 2.37262779e-04, -7.68381543e-03,
          -8.27223156e-03, 1.34412816e-03, 1.15875702e-03,
          4.37628524e-03, 3.92679917e-03, 3.15121165e-03,
          -5.28923469e-04, 1.95260788e-03, -6.29855180e-03,
          -8.30593333e-03, -3.40923178e-03, 2.66943360e-03,
          4.90596797e-03, -1.17021520e-03, -2.14671018e-03,
          -2.85040261e-03, -1.21443626e-03, -6.22880505e-03,
          -1.10811628e-02, -2.96142627e-03, -1.22316604e-04,
          1.09467335e-04, -5.58870321e-04, -5.67167811e-03,
          -2.96994834e-03, 5.81955723e-03, -5.49459131e-03,
          -8.33466370e-03, -1.80975487e-03, 2.30662990e-03,
          8.44765793e-07, 2.24769814e-03, -1.08199252e-03,
          -1.41690113e-03, 2.73309561e-04, -4.71787248e-03,
          -4.76575177e-03, -3.90610727e-03, 3.24311713e-03,
          6.18350692e-03, -9.10578121e-04, -1.60119511e-04,
          -3.26357014e-03, -3.58577678e-03, -6.06303476e-03,
          -5.18660806e-03, -3.04201571e-03, -4.00332792e-04,
          3.23915738e-03, 1.97476475e-03, -5.16411895e-03,
          -3.10255564e-03, 6.06256910e-03, -5.38549526e-03,
          -4.56454000e-03, -8.27529802e-05, 7.05423579e-03,
          6.92246901e-03, -1.84477761e-03, -2.74260272e-03,
          -3.00450623e-03, 7.37107079e-03, 5.06613811e-04,
          -5.02689881e-03, -3.62629700e-03, 1.77468965e-03,
          4.08020010e-03, 3.95168178e-03, 4.83059417e-03, 6.85259234e-04,
          -4.93934704e-03, -1.64878939e-03, -7.99095910e-03,
          -3.92805366e-03, 1.98746170e-03, 5.95549354e-03,
          4.57355240e-03, -1.59519550e-03, -1.68626907e-03,
          -3.03883664e-03, -5.63632580e-04, -5.44457603e-03,
          -8.28064140e-03, 3.42273340e-03, 6.66124839e-03,
          2.14839890e-03, -2.83474126e-03, -1.46142964e-03,
          3.16081429e-03, 3.27317533e-03, -9.13508795e-03,
          -5.98227233e-03, 3.14853597e-03, 5.17663918e-03,
          1.41578971e-03, -2.33139261e-03, -6.44380273e-03,
          -7.92992208e-03, -1.11880596e-03, -3.69591080e-03,
          -1.01285279e-02, 2.76197912e-04, 4.28697048e-03,
          8.98571964e-03, 1.18099160e-04, 1.93961791e-03, 1.08497404e-02,
          6.22140616e-03, -4.72534122e-03, -1.07261883e-02,
          -4.17100237e-04, 4.46789991e-03, 2.08059046e-03,
          3.51973716e-03, 5.62356692e-03, -2.20479863e-03,
          -1.57927012e-03, -7.98402540e-03, -5.29275881e-03,
          -2.69252481e-03, -1.72978779e-03, 4.48774872e-03,
          3.40670557e-03, -2.21575829e-04, -2.37395219e-03,
          3.65988119e-04, -2.19734851e-03, -6.31241407e-03,
          -2.97101052e-03, 4.86059859e-03, 5.07340720e-03,
          8.63601174e-03, 2.01001181e-03, -7.29094911e-03,
          -2.11018045e-03, -5.74931642e-03, -3.48878396e-03,
          -1.56778796e-03, 3.34330485e-03, 2.22055870e-03,
          3.46306828e-03, 4.67829779e-03, -5.10298321e-03,
          -5.66145685e-03, -8.86050519e-03, -5.65760893e-05,
          7.16357783e-04, -1.92275061e-03, 2.57541193e-03,
          8.94291210e-04, 1.68082106e-03, -4.97365254e-04,
          -6.72814157e-03, -7.05526955e-03, -3.28558963e-03,
          2.35213985e-04, 8.11111458e-05, 6.25973288e-03, 6.58577215e-03,
          6.49223395e-04, -1.06080342e-02, -3.60478018e-03,
          -1.08402604e-02, -2.70121777e-03, 2.71079736e-03,
          2.74249073e-03, 8.67715338e-04, 2.43140175e-03,
          -2.84248707e-03, -2.55559874e-03, -9.57958773e-03,
          -8.61811079e-03, -4.41625621e-03, 1.99379306e-03,
          3.37470602e-03, -7.69323204e-03, -3.37035465e-03,
          -1.63970026e-03, 1.17303897e-03, 5.47358720e-03,
          6.71341922e-03, 7.54379318e-04, -2.74293614e-03,
          -6.68553868e-03, -6.56701578e-03, -6.83847349e-03,
          2.44681054e-04, -3.01219779e-03, 4.44362732e-03,
          8.35620705e-03, 6.61774119e-03, -3.11163533e-03,
          -8.21472332e-03, -6.42532203e-03, -6.69131661e-03,
          -4.38176375e-03, 1.39291410e-03, -1.66020822e-03,
          2.01520044e-04, 4.26640036e-03, -9.09521768e-05,
          -4.66782460e-03, -3.44624906e-03, -6.98953774e-03,
          -5.64457523e-03, -3.41934880e-04, 2.15341919e-03,
          8.51973519e-03, 4.89662774e-03, 2.46156030e-03,
          -2.76738987e-03, -6.51996175e-04, -3.42916721e-03,
          -5.88939106e-03, -7.84630887e-03, 5.20211225e-03,
          9.59631242e-03, 8.06210097e-03, -2.87023606e-03,
          -1.43454806e-03, 6.29752933e-04, 8.51240358e-04,
          -2.91322195e-03, -1.03985779e-02, -2.62388075e-03,
          4.08632774e-03, 3.02172359e-03, -3.08109401e-03,
          -1.01055939e-05, 4.09725646e-04, -3.11241136e-03,
          -5.35486732e-04, -5.03980136e-03, -2.76471372e-03,
          7.51363300e-03, 6.29245071e-03, 2.35218788e-03, 1.25253212e-03,
          7.96574634e-04, -3.00138653e-03, -6.12848485e-03,
          -9.01058037e-03, -1.15091018e-02, 1.49890932e-03,
          4.64249635e-03, 2.49913603e-04, 4.77304496e-03,
          -6.13070617e-04, 1.40136341e-03, -2.25247024e-03,
          -6.12529786e-03, 6.72626263e-03, 4.87850187e-03,
          3.53301270e-03, -1.44902989e-03, -2.24449876e-04,
          -6.17940677e-03, -7.16102170e-03, -8.69659893e-03,
          -1.08872273e-03, 5.39718661e-03, 6.51509967e-03,
          1.27925340e-03, -2.29034922e-03, -4.71291272e-03,
          3.43322544e-03, -2.59740371e-03, -7.64865614e-03,
          -3.17804422e-03, 3.48321791e-03, 1.88555961e-04,
          3.03268177e-03, 9.75400559e-04, 3.67607875e-03,
          -5.25078876e-03, -9.60404426e-03, -1.71308834e-02,
          -1.55603932e-03, 8.14176723e-03, 9.08144377e-03,
          2.55292328e-03, -4.60860785e-03, -5.54649998e-03,
          2.66466552e-04, -2.65247771e-03, -6.63122069e-03,
          -8.25587136e-04, 1.23512326e-02, 1.51560386e-03,
          -3.58257117e-03, -4.37950529e-03, -1.32956204e-03,
          2.02804781e-03, -2.03670166e-03, -4.44883062e-03,
          5.72863547e-03, 2.85151880e-03, -8.02839268e-03,
          -1.14118755e-02, -6.19700318e-03, 8.72709279e-05,
          -7.50121719e-04, -5.61087206e-03, -8.15236382e-03,
          -1.50892360e-03, 9.93127935e-03, 8.77289847e-03,
          2.31648097e-03, -2.74939579e-03, -1.40039029e-03,
          4.75387136e-03, -3.33894440e-03, -1.54733250e-03,
          5.39452257e-03, 3.19806044e-04, -5.88686438e-03,
          -3.36671923e-03, -3.62533983e-03, -3.19699961e-04,
          -7.45449099e-04, -4.96024592e-03, -5.05844038e-03,
          3.20109143e-03, 3.53664131e-04, -6.95488090e-03,
          -7.84180965e-03, -3.12355231e-03, 7.53106840e-04,
          -7.99139496e-03, -7.37173064e-03, -3.89337027e-03,
          8.97204096e-04, 4.00106702e-03, 1.35527353e-03,
          -1.68977524e-04, 3.41263920e-04, -5.07427333e-03,
          2.35464913e-03, -2.67739384e-03, 4.67695390e-05,
          1.12079689e-02, 2.03890470e-03, -6.68610586e-03,
          -3.02990805e-03, -4.20068391e-03, -1.81958696e-03,
          -2.90413434e-03, -5.36486460e-03, -1.95810432e-03,
          -2.63941736e-04, 6.21058163e-04, 1.67492277e-03,
          2.13698040e-05, 1.19266356e-03, -1.53977412e-03,
          -1.08706448e-02, -7.97346421e-03, -5.65239601e-03,
          1.03198143e-03, 9.73636378e-03, 4.70030261e-03, 7.27020786e-04,
          -4.96314140e-04, -1.03333881e-02, -5.83826331e-03,
          -7.30274897e-03, -5.21058356e-03, 1.52224570e-03,
          1.00409817e-02, 4.02605860e-03, -4.54471167e-03,
          -3.92127968e-03, -9.65126883e-03, -4.03017597e-03,
          -2.76419823e-03, -2.33347667e-03, -1.54928234e-03,
          4.80510294e-03, 6.28063921e-03, -9.05486580e-04,
          3.38348071e-03, -4.45907330e-03, -3.71178403e-03,
          -2.55826220e-04, -4.20700153e-03, -1.40034838e-03,
          5.19267423e-03, 6.27252320e-03, -3.96902021e-03,
          -2.40581436e-03, -3.34599381e-03, -3.93376406e-03,
          -3.35088931e-03, -7.25459249e-04, 5.01167029e-03,
          9.28315893e-03, -1.84280379e-03, -9.12367459e-03,
          -6.97170990e-03, -6.34580338e-03, 6.98524341e-03,
          -2.11262004e-03, -2.23866256e-04, -4.71004331e-03,
          -2.53565004e-03, -9.90562141e-03, -5.00442646e-03,
          -3.68933962e-03, 4.08860389e-03, 4.81815729e-03,
          7.50306179e-04, -6.76280260e-03, -3.92058911e-03,
          6.66697277e-03, 3.83831584e-03, -1.20013731e-03,
          -5.96729526e-03, -2.41944822e-03, 9.92505718e-03,
          2.97214906e-03, -7.93593004e-04, -3.77382874e-03,
          3.59585416e-03, -1.20442163e-03, -1.89078506e-03,
          -4.22653649e-03, 4.79859579e-03, 7.13181915e-03,
          -9.85465129e-04, 6.22458989e-04, -6.38646865e-03,
          -9.43741389e-03, -1.37529392e-02, -2.02349317e-03,
          4.82480321e-03, 5.06704254e-03, 9.84891783e-03, 6.02963753e-03,
          5.13208052e-03, -4.30166908e-03, -7.46986736e-03,
          -5.70840947e-03, 5.36466669e-03, 8.07378814e-03,
          6.30601356e-03, 1.00024827e-02, 6.45974791e-03, 1.95336319e-03,
          -3.96476779e-03, -4.82893223e-03, -8.13934766e-03,
          4.03698534e-03, 2.08929810e-03, 7.33451359e-03, 1.52531657e-02,
          1.03038885e-02, 7.58887921e-03, -1.88092026e-03,
          -5.93901938e-03, -3.81515129e-03, 5.75261144e-03,
          1.01520494e-02, 9.48625244e-03, 1.43710652e-03, 2.42519402e-03,
          1.06810033e-03, -1.67635130e-03, -7.84775615e-03,
          3.69274872e-04, 1.77246029e-03, -4.09454899e-03,
          -2.12813797e-03, -4.29240288e-04, 3.15663288e-03,
          2.63777445e-03, 3.96085763e-03, -2.13427632e-03,
          6.78333105e-04, 3.23578995e-03, -6.27735723e-03,
          -5.11140656e-03, 1.04098571e-02, 7.37182843e-03,
          4.66978783e-03, 6.55039970e-04, -1.33475615e-03,
          -6.93425653e-04, 3.98195675e-03, 3.02068982e-03,
          3.14217363e-03, 4.34264913e-03, 5.21427626e-03, 1.12019246e-02,
          1.09990053e-02, -2.50659359e-04, -1.31397240e-03,
          -2.64904462e-04, -4.01464384e-03, 3.26419249e-03,
          1.91046274e-03, 6.29264629e-03, 3.56787187e-03, 3.55904154e-03,
          -5.67232445e-03, -2.90376903e-03, 2.74870149e-03,
          -6.26145513e-04, -3.89262545e-03, 6.73802756e-03,
          8.05362593e-03, 9.47793946e-03, -3.44484532e-03,
          -1.25469174e-02, -9.60170105e-03, 3.35123087e-03,
          4.14189789e-03, 3.59538593e-03, 5.72504476e-03, 6.03895169e-03,
          1.09506333e-02, 5.14585758e-03, -2.97044613e-03,
          -6.60999026e-03, 1.48646662e-03, -1.15570601e-03,
          1.91973581e-03, 8.46766587e-03, 9.38223209e-03, 9.01709776e-03,
          -3.27717932e-03, -9.35094338e-03, -7.98155461e-03,
          5.15364716e-03, 5.19689685e-03, 6.83008553e-03, 3.18345777e-03,
          5.12106158e-03, 1.04408329e-02, 1.55400787e-03,
          -1.38831567e-02, -8.48029833e-03, 5.08916937e-03,
          4.84467950e-03, 7.80563429e-03, 1.98312732e-03,
          -2.21660666e-04, 5.13044512e-03, 9.34011594e-04,
          -4.93399845e-03, -2.80057522e-03, -2.98469886e-03,
          3.76706757e-03, 7.59402337e-03, 7.24247517e-03, 1.51340861e-03,
          4.57337638e-03, -3.04325437e-03, -8.68072268e-03,
          -3.39740911e-03, 5.61448373e-03, 3.31386295e-03,
          8.95028003e-03, -2.11217979e-04, -5.87008474e-03,
          -4.70364047e-03, -5.81975188e-03, -5.06543089e-03,
          -1.27984106e-03, 5.63090760e-03, 2.29621585e-03,
          9.57830343e-03, 6.01130887e-04, 4.21120832e-03, 3.00245546e-03,
          4.72660875e-03, 5.40243601e-03, 1.79611077e-03,
          -3.76540329e-03, -8.35278828e-04, 2.21943390e-03,
          5.55164181e-03, 6.78225234e-03, 5.97513327e-03, 9.25693940e-03,
          7.65693374e-03, -4.10204986e-04, -9.75965708e-03,
          -8.21993221e-03, -3.75729077e-03, 2.53567286e-03,
          -3.88218462e-03, -3.00661381e-03, -1.48238265e-03,
          -1.18081865e-03, 4.40476742e-03, 3.99999134e-03,
          1.92589173e-03, 6.46549370e-03, 7.99353514e-03, 2.07696971e-03,
          1.20700884e-03, 4.62539290e-04, 7.03404658e-04, 5.63410751e-04,
          -4.22259700e-03, -8.57889652e-04, -5.32626233e-04,
          3.32628796e-03, 6.05060253e-04, 1.57168915e-03, 7.86584802e-03,
          4.01738100e-03, -2.75526498e-03, -8.64193216e-03,
          -7.35002058e-03, -2.88743456e-03, 4.11843136e-03,
          2.33784714e-03, 5.16910804e-03, 7.94136152e-03, 5.40310191e-03,
          1.51258428e-03, -1.44650321e-03, -3.89344618e-03,
          -4.61480953e-03, 9.97331925e-03, 5.15759317e-03,
          -7.79166003e-04, 1.37074501e-03, 1.91225379e-03,
          4.50328877e-03, -6.55029854e-03, -4.12306562e-03,
          8.38979788e-04, 2.24658768e-04, 1.71222107e-03, 9.30494280e-04,
          8.35974142e-03, 7.87092187e-03, 4.13945923e-03,
          -1.36385486e-03, -6.95031183e-03, -5.87665383e-03,
          1.44158130e-05, -3.77306947e-04, 3.46979103e-03,
          5.95002528e-03, 6.92421943e-03, -8.27355601e-04,
          2.03058962e-03, 2.83768546e-04, -5.60383312e-04,
          4.17180592e-04, 2.39715469e-03, 3.72117595e-03, 4.39447863e-03,
          2.16905284e-03, -8.79154541e-03, -4.32048179e-03,
          3.91831796e-04, 2.19893103e-04, -2.98953056e-03,
          -2.70570209e-03, 2.75980076e-03, 5.49498433e-03,
          1.26760751e-02, 6.97101466e-03, 2.82256515e-03,
          -3.66528123e-03, -6.16688700e-03, -7.90520292e-03,
          -4.29924252e-03, 5.31869882e-04, 1.41536165e-03,
          6.56989915e-03, -1.97677664e-03, -2.76447111e-03,
          -5.26426872e-03, -1.36577990e-02, 2.12504272e-03,
          4.14634077e-03, 6.83250744e-03, 6.71295123e-03, 3.78350075e-03,
          -7.32886884e-03, -5.58475778e-03, -3.98649089e-03,
          -7.83602824e-04, 5.70887374e-03, 2.97245360e-03,
          4.90621943e-03, 6.67532149e-04, 3.31161986e-03, 1.17793877e-03,
          3.38215730e-03, -6.41379086e-03, -4.51872405e-03,
          -6.66407542e-03, 1.68592774e-03, 6.62213564e-03,
          6.25944650e-03, 8.36645532e-03, 2.14786109e-04,
          -8.15483974e-04, -5.54732094e-03, -1.28034921e-02,
          -4.63172793e-04, 3.54219205e-03, 5.38570294e-03,
          2.23875768e-03, 5.63253509e-03, -4.22756979e-03,
          -1.43568683e-03, -9.95292049e-03, -6.27059583e-03,
          4.98755137e-03, 5.51825901e-03, 5.06490143e-03, 3.86062497e-03,
          3.06774024e-03, -2.86151335e-04, 2.66832928e-03,
          -5.89677878e-03, -5.10412222e-03, 2.37496756e-03,
          2.63285520e-03, 3.01278732e-03, -9.78551572e-04,
          1.48218090e-03, 1.75438088e-03, 3.21945990e-03,
          -3.75181646e-03, -1.86464645e-03, 3.82276485e-03,
          3.76213598e-03, 9.50723130e-04, -6.03699940e-04,
          6.58423733e-03, -2.67642830e-03, -2.78220861e-03,
          -8.77600349e-03, -3.16958013e-03, -1.25126087e-03,
          -4.26044315e-03, -4.44685388e-03, -3.87076521e-03,
          1.41336787e-02, 7.69317709e-03, 1.29403407e-03,
          -4.60569141e-03, -5.24619408e-03, 5.64402551e-04,
          2.47492862e-04, 2.28387813e-04, -1.17929291e-03,
          7.22413370e-03, 5.65146841e-03, 4.83651133e-03,
          -4.15071798e-03, -3.31936311e-03, -4.30229993e-04,
          1.80247659e-03, 4.39861137e-03, 3.33773089e-03, 1.07045323e-02,
          2.27007549e-04, 3.83161387e-04, -3.93454777e-03,
          -5.43278316e-03, -8.07607081e-03, -5.62328054e-03,
          -6.90840464e-03, -3.80419241e-03, 1.24349110e-02,
          6.27727294e-03, 6.23392349e-04, -7.49944663e-03,
          -9.74529143e-03, -1.02059012e-02, -1.31190615e-03,
          1.63577544e-03, 4.99651243e-04, 9.55404807e-03,
          -3.89021123e-03, -2.87726801e-03, -8.38726945e-03,
          -1.42472526e-02, -4.30409890e-03, 8.53136240e-04,
          4.77119023e-03, 1.47656072e-03, -9.73253394e-04,
          -4.88904817e-03, -3.87056591e-03, 3.96338350e-04,
          -4.28632973e-03, -2.79253488e-03, 7.65478332e-03,
          7.26431748e-03, 2.20902124e-03, -5.79096377e-03,
          -3.10725789e-03, -6.46742247e-03, -2.42609461e-03,
          -7.68658938e-03, -4.50686412e-03, 8.66194023e-04,
          4.90298681e-03, 3.69074102e-03, -1.07199990e-03,
          -6.14617858e-03, -6.72607170e-03, -6.36983942e-03,
          -1.15888100e-02, -4.03251965e-04, 2.54627666e-03,
          8.57969746e-03, 3.60869383e-03, -1.03429437e-03,
          -4.28745989e-03, -3.95229552e-03, -1.86944555e-03,
          -3.76425381e-03, -6.22051157e-05, 7.20293541e-03,
          5.51654026e-03, 3.51513457e-03, 2.31611147e-03, 2.01289193e-03,
          -6.32796157e-03, -6.40990352e-03, -9.38725192e-03,
          -1.60849770e-03, 6.02539396e-03, 8.64343601e-04,
          -6.90223882e-03, -4.45200130e-03, 1.01100001e-03,
          1.28919492e-03, -6.38070574e-04, -7.97121134e-03,
          1.67362357e-03, -2.26175500e-04, 5.10527287e-04,
          1.24629890e-03, 3.27466492e-04, 1.52969919e-03,
          -8.67060910e-04, -3.36693041e-03, -1.36601890e-03,
          4.12754773e-04, 6.84369961e-03, 3.95967346e-03,
          -2.73068273e-03, -7.80020654e-03, 4.99711093e-03,
          8.22195783e-04, -5.27502922e-03, -1.46263058e-03,
          4.91784513e-03, 5.50036645e-03, 1.41237234e-03,
          -1.34671377e-02, -1.03113251e-02, 5.32285543e-03,
          6.43704226e-03, -2.47748499e-03, -2.54509342e-03,
          6.38964958e-03, 6.48060860e-03, 4.32854425e-03,
          -6.04496710e-03, -9.83882044e-03, -3.28822248e-03,
          7.37469131e-03, -2.68043659e-04, -9.92365647e-04,
          5.11366921e-03, 9.66392364e-03, 7.87289441e-03,
          -6.41993107e-03, -8.70464649e-03, 4.24531382e-03,
          5.76987211e-03, -8.21595732e-03, -7.11503380e-04,
          6.34042919e-03, 5.46326814e-03, 4.73641464e-03, 9.06522619e-04,
          -5.05186478e-03, -3.89474398e-03, 2.01957370e-03,
          -5.32368943e-03, 2.69829971e-03, 4.36616217e-04,
          4.61022509e-03, 3.74224153e-03, -7.48278247e-03,
          -9.57457349e-03, -7.89317768e-03, -6.73649338e-05,
          2.14198604e-03, -1.15296489e-03, 1.88321015e-03,
          3.58090783e-03, -1.91051955e-03, -7.66424416e-03,
          -1.33583900e-02, -9.48389713e-03, -2.44343281e-03,
          2.62594991e-03, 4.58840746e-03, 9.97624546e-03, 4.15696949e-03,
          6.59257360e-03, -5.64729888e-03, -3.09894653e-03,
          -4.89254948e-03, -2.55003548e-03, -1.29678578e-03,
          7.53124198e-03, 1.29904952e-02, 8.86703189e-03, 5.29078627e-03,
          -9.06527229e-03, -3.31193255e-03, -3.65980715e-03,
          5.59229264e-03, 7.14589236e-03, 1.43491644e-02, 1.62899145e-03,
          4.54377569e-03, -1.52781082e-03, -4.94780904e-03,
          -1.06483875e-02, -4.15550545e-03, 1.52048538e-04,
          9.23714251e-04, 4.28103143e-03, 2.08461820e-03, 3.34939221e-04,
          4.55729803e-03, 1.05781859e-04, -1.10385679e-02,
          -5.09107253e-03, -6.83127856e-03, -5.66068385e-03,
          -2.29143095e-03, 1.13546280e-02, 7.23385159e-03,
          2.22573429e-03, -9.02030990e-03, -6.59693964e-03,
          2.89627328e-03, 5.30574284e-03, 3.99087602e-03, 1.21756466e-02,
          1.02780107e-02, 4.91970871e-03, -1.62385358e-03,
          -4.10309574e-03, -4.08652844e-03, -1.28108251e-03,
          -3.77300591e-03, -7.95029756e-03, 5.84490364e-03,
          -9.60224890e-04, 5.86350798e-04, 4.37856140e-03,
          3.34736030e-03, -8.28058086e-03, -6.90402696e-03,
          -8.51790607e-03, -8.67924746e-03, -4.87358309e-03,
          1.26302431e-04, 5.80253173e-03, 7.08049582e-03, 5.42689988e-04,
          -5.90257160e-03, -6.32775528e-03, -5.08316467e-03,
          -9.49012581e-03, -4.56204917e-03, 6.36602659e-03,
          1.43170403e-03, 1.83992949e-03, 1.93227653e-03,
          -2.93407426e-03, -6.94088929e-04, -4.73546796e-03,
          -5.78372600e-03, 3.89983575e-03, 1.60918629e-03,
          -1.42294157e-03, 7.03340629e-03, 9.43461247e-03,
          -6.94745686e-04, -2.58895499e-03, -1.19254133e-03,
          -2.04584887e-03, -2.26316112e-03, 5.19206049e-04,
          3.38717015e-03, 2.68549472e-03, -9.70680453e-03,
          -8.92697461e-03, -1.39706815e-03, 1.22432993e-03,
          -3.46977543e-03, 9.42013721e-05, 5.46131050e-04,
          9.69094806e-04, -4.10376256e-03, -1.00420984e-02,
          -8.34509078e-03, -1.69165578e-04, 7.44842831e-03,
          7.21850665e-03, 5.62228682e-03, 6.47703127e-04,
          -2.35554599e-03, 1.33315194e-03, 2.16634246e-03,
          -5.93216391e-03, -3.73533089e-03, -6.91493799e-04,
          -1.56279909e-03, 9.87585518e-04, 4.25211154e-03,
          1.81920407e-03, 2.97639356e-03, -1.26409426e-03,
          -3.13458126e-03, 1.10154026e-04, 6.03044266e-03,
          7.73207983e-03, 4.03640186e-03, -4.38409252e-03,
          -3.39675485e-03, -4.49711364e-03, -2.76512583e-03,
          -3.82899842e-03, -9.02672391e-03, 3.09582707e-03,
          2.95610167e-03, -2.40416452e-03, -4.32154816e-03,
          -5.25998883e-03, 7.98433379e-04, 1.02655515e-02,
          1.09137350e-03, -7.40025192e-03, -1.03761279e-03,
          -3.26074590e-03, -6.81145862e-03, -1.12407033e-05,
          -7.82651303e-04, 5.94416633e-04, -2.64761416e-04,
          -1.29561080e-03, -4.60022548e-03, 5.52134821e-03,
          7.36098178e-03, -3.09972675e-03, -1.99724850e-03,
          -2.25778222e-05, 2.34013679e-03, 4.63074399e-03,
          1.29659567e-03, -3.42027517e-03, -1.09235430e-03,
          3.65564541e-04, -2.24100682e-03, 1.84137840e-03,
          9.38024197e-04, 1.83285796e-03, 7.91958906e-03,
          -3.44405510e-03, -5.07505145e-03, 4.91183891e-04,
          -6.07716036e-04, -1.32744992e-03, 2.74797343e-03,
          9.92983696e-04, 3.31554824e-04, 2.04797275e-03, 3.22312885e-03,
          -1.00169401e-03, -2.14977632e-03, 1.52167177e-03,
          3.11819394e-03, 2.96677812e-03, 6.30229479e-03, 1.09217118e-03,
          -8.89457297e-04, -3.17759556e-03, -8.29518191e-04,
          -2.00404995e-03, -5.40899904e-03, -1.48122956e-03,
          5.83918672e-03, 4.53630323e-03, -2.18138262e-03,
          -5.77800442e-03, -2.36149505e-03, -9.26748093e-04,
          -1.32648519e-03, -3.59024234e-05, 2.65751104e-03,
          -3.70904163e-04, -3.24879074e-03, -9.79194301e-04,
          3.23966681e-03, 5.75584779e-03, -4.59216535e-03,
          -1.55023788e-03, 2.88920337e-03, 2.42041168e-03,
          -8.38999869e-04, 1.79854949e-04, -2.63393275e-03,
          -6.42426545e-03, -7.99305679e-04, -4.89614788e-04,
          -7.80086918e-03, -4.38989839e-03, 2.25660391e-03,
          1.25550118e-03, -1.76675688e-03, -5.40103822e-04,
          -2.58415868e-03, 1.05193944e-03, 8.91456206e-04,
          -5.79699627e-05, 5.11800114e-04, 3.86636727e-03,
          -2.40051979e-03, -2.19779043e-03, -1.70253322e-03,
          -6.33473042e-04, -4.69516357e-03, -2.41577229e-03,
          -7.45353755e-03, -6.06692955e-03, -2.14988075e-04,
          1.70521601e-03, 7.11275125e-03, -1.78260042e-03,
          -8.23758543e-03, -9.59851255e-04, 3.21576343e-04,
          -4.13725572e-03, -5.43970941e-03, 2.98087834e-03,
          5.68696205e-03, 9.26148146e-03, -1.48333854e-03,
          -5.02783805e-03, -1.96217839e-03, -4.82442928e-03,
          1.20399322e-03, -2.54728226e-03, 1.93701265e-03,
          1.77579757e-03, 5.05440694e-04, -1.80523354e-03,
          -5.56923030e-03, 3.78912373e-04, -2.73479708e-03,
          -3.62139987e-03, -4.40915953e-03, 1.35792641e-03,
          5.57436328e-03, 2.31949054e-03, -2.98628025e-03,
          -1.10044051e-02, -5.95567795e-03, -6.93505118e-03,
          9.08822869e-04, 7.58120732e-04, 3.38194473e-03, 8.07514600e-03,
          8.07529874e-03, 1.14538078e-03, -7.56347459e-03,
          -3.46283568e-03, -9.64609161e-03, -2.80365814e-03,
          2.32962263e-03, 3.52078723e-03, 1.80377543e-03, 9.11004201e-04,
          -3.29272845e-03, -5.37125161e-03, -8.89840629e-03,
          -1.05712144e-02, -2.98862346e-03, 3.84066137e-03,
          4.72014584e-03, 6.53075799e-03, 2.36943993e-03, 2.05365388e-04,
          -4.77469107e-03, -5.77396899e-03, -6.35258947e-03,
          5.92467200e-04, 6.09332137e-03, 7.03773415e-03,
          -3.29262286e-04, -4.53795190e-04, -1.86396937e-03,
          -3.83364386e-03, -6.62415801e-03, -8.16242862e-03,
          1.24696479e-03, 3.80945741e-04, 3.01735336e-03,
          -4.92612598e-03, -2.81429570e-03, -4.63125063e-03,
          -1.13094643e-06, -1.97394029e-03, 4.31590946e-03,
          8.53020418e-03, 5.49130666e-04, -3.36710759e-03,
          -7.28301879e-04, -3.63096897e-03, -6.06979709e-03,
          -9.74741764e-04, 1.20142021e-03, 1.18110776e-02,
          1.02580059e-02, 2.29321211e-03, -1.87765725e-03,
          -1.09742796e-02, -2.38520908e-03, 2.48209969e-03,
          2.08032294e-03, -5.61310118e-03, -1.09029165e-03,
          4.04122518e-03, 1.58028060e-03, -6.04735129e-03,
          -1.44255499e-03, -4.29380313e-03, 4.79153859e-05,
          -2.23799516e-03, -3.74193490e-03, -1.81604864e-03,
          1.12234522e-03, -5.88887953e-04, -5.86222159e-04,
          1.72878732e-03, -9.18646925e-04, 1.05191173e-03,
          1.99335424e-04, -8.43606889e-04, 8.18079803e-03,
          3.86430486e-03, 1.61532417e-03, -1.19353482e-03,
          3.10008368e-03, -6.24081877e-04, 1.12830872e-04,
          -2.78262212e-03, -6.13368768e-03, 2.85396609e-03,
          8.22328089e-04, 2.84818397e-03, 4.60201502e-03, 3.07053258e-03,
          -1.19141815e-03, -1.60396169e-03, -1.41156651e-03,
          -5.17563522e-03, 1.14339206e-03, -2.23375694e-03,
          -2.04305211e-03, 9.90707427e-04, 3.12983128e-03,
          4.26003477e-03, 4.04986320e-03, 3.55294766e-03,
          -6.58365851e-03, -5.80354885e-04, -6.35482883e-03,
          -1.36383623e-03, 1.07593567e-03, 2.49132328e-03,
          -1.54586765e-03, -4.80518071e-03, -5.67556359e-03,
          1.31394470e-03, 5.51494351e-03, -5.17912267e-05,
          1.07850821e-03, 5.94796846e-03, -6.09975401e-03,
          -7.11779995e-03, -1.27350288e-02, -5.44898724e-03,
          7.69749610e-03, 9.28564742e-03, 6.13465905e-03, 2.42055321e-04,
          -3.23782791e-03, 2.22784001e-03, -1.17340719e-03,
          -1.97659456e-03, -8.29905551e-03, -3.48396949e-04,
          4.76836227e-03, -1.76562462e-03, 9.89045016e-04,
          -1.21497513e-04, -2.95549678e-03, -3.37703107e-03,
          -8.00493732e-03, -1.11883478e-02, 1.67205441e-03,
          6.75391871e-03, 4.99784155e-03, 8.72392557e-05,
          -4.66890959e-03, -8.10935441e-03, -6.39945595e-03,
          -6.31407555e-03, -6.08205190e-03, 6.10774197e-03,
          8.10585544e-03, 2.91706529e-03, -1.10903429e-03,
          -7.32303411e-03, -7.39427574e-04, -1.46692921e-03,
          -3.97661794e-03, 2.80065415e-03, 2.16141716e-03,
          2.33516243e-04, 1.97274392e-04, -2.56904657e-03,
          -8.09444301e-03, -2.94524431e-03, -8.11667007e-04,
          -2.89881299e-03, -7.15479814e-03, 3.99534404e-03,
          1.06682824e-02, 3.22106271e-03, -3.48261301e-03,
          -7.15230359e-03, -2.35842750e-03, 7.17304554e-03,
          -1.95280800e-03, 8.97678838e-05, -2.77546380e-04,
          2.45231460e-03, -3.85484612e-03, -8.12110491e-03,
          -9.98799410e-03, 2.69985921e-03, -1.37590582e-03,
          -1.77365914e-03, 6.86539151e-03, -3.93608538e-03,
          -5.36160218e-03, 4.13978333e-03, 2.39753979e-04,
          -4.33691684e-03, 2.60446547e-03, -8.39525659e-04,
          -1.46806240e-04, -6.43836509e-04, -8.02162383e-03,
          -3.54951783e-03, -9.77787073e-04, 3.49441869e-03,
          -2.48396280e-03, -1.28443760e-03, 4.02988587e-03,
          -1.38908485e-03, 4.52348311e-03, -6.60519954e-03,
          -5.74539183e-03, -3.25534260e-03, 6.74318813e-04,
          -7.29598105e-03, 6.24355674e-03, 5.23263775e-03,
          1.14375995e-04, -3.76569526e-03, -7.23101059e-03,
          -9.12030134e-03, 3.53013515e-03, 9.55087785e-03,
          4.72197862e-04, 2.70751002e-03, -9.81427729e-04,
          -3.68988351e-03, -3.56305763e-03, -4.71110456e-03,
          -2.64499569e-03, -4.83962661e-03, 1.05440989e-03,
          -3.81701835e-03, 3.02861538e-03, 2.74389121e-03,
          -3.59429419e-03, -6.97604753e-03, -1.77699036e-03,
          -2.29360256e-03, -2.57807900e-03, -3.16684437e-03,
          -3.03173880e-03, 3.64841032e-03, 5.40275732e-03,
          3.85749480e-03, -3.95591371e-03, -9.33804724e-04,
          -6.88383915e-03, -7.45587575e-04, 5.59252128e-03,
          2.12198193e-03, 3.11627542e-03, 4.75520920e-03, 4.60558105e-03,
          1.87655876e-03, 6.92325935e-04, -1.14590116e-03,
          3.14661505e-04, 2.91926647e-03, 7.21729477e-04, 6.98389579e-03,
          4.14683670e-03, -2.93770968e-03, -6.12262683e-03,
          1.21736794e-03, 1.64158957e-03, 2.43443809e-03,
          -5.08849602e-03, -1.90398865e-03, 6.05161861e-03,
          1.48630026e-03, -4.96587995e-03, -6.57636346e-03,
          2.38431428e-04, 3.60365049e-03, 4.28360142e-03,
          -6.03922550e-03, 8.83701839e-04, 5.91776613e-03,
          2.23957305e-03, 4.22855327e-03, 3.63197573e-03,
          -1.85199117e-03, -1.75049924e-03, 1.36010454e-03,
          -8.95272999e-04, 7.06902705e-04, 6.71719201e-04,
          -5.38696442e-03, -3.01515823e-03, -2.02092039e-03,
          2.90768105e-03, 2.29143538e-03, 3.08998325e-03,
          -3.05998838e-03, -2.50982400e-03, 6.72193617e-03,
          -2.90451711e-03, -4.06967010e-03, -5.10708056e-03,
          -2.32198130e-04, 2.29996769e-03, 3.41640576e-03,
          -1.97457289e-03, 5.30229229e-03, 1.20459152e-02,
          1.20130845e-03, -3.77675775e-03, -5.55918273e-03,
          -4.73661488e-03, 6.07473659e-04, 6.89860852e-03,
          6.87453663e-03, 1.07673071e-02, 3.09625617e-03,
          -6.19777478e-03, -4.31857491e-03, -8.51767790e-03,
          -3.13261547e-03, 4.79746051e-03, 4.29519545e-03,
          -3.08719371e-03, 4.51885280e-04, 1.15374392e-02,
          4.78670280e-03, -2.94444617e-04, -8.72822758e-03,
          -5.87901054e-03, -3.20761488e-03, 4.60311910e-03,
          3.05321300e-03, 8.17150529e-03, 6.31348044e-03, 1.38199903e-05,
          -4.54215857e-04, -7.83206709e-03, -4.98691155e-03,
          -1.99618889e-03, 1.85959239e-03, 1.27325510e-03,
          1.18609634e-03, 2.38224375e-03, -2.77608866e-03,
          6.43838663e-03, 8.38494021e-03, 2.41143769e-03,
          -8.41486081e-03, -5.53990761e-03, -4.86134179e-03,
          3.01635620e-04, 6.00583665e-03, -2.82634608e-03,
          -3.41916806e-03, -5.84219489e-03, -6.23530475e-03,
          -2.35063583e-03, 6.44439878e-03, 4.16971852e-05,
          2.60964758e-03, -3.08991526e-04, -1.28518222e-02,
          -9.11507290e-04, 2.18407740e-03, -1.77493901e-03,
          -3.81348957e-03, 5.02368016e-03, -2.11962173e-03,
          1.52141228e-03, 7.33207259e-03, 4.30079969e-03, 7.93582946e-03,
          8.20659101e-03, 1.49728649e-03, -7.53526529e-03,
          -1.92813016e-03, -1.61958902e-04, 3.53308325e-03,
          1.25488248e-02, 6.18750742e-03, 5.12761949e-03, 1.49007433e-03,
          -4.00406681e-03, -6.63745776e-03, 2.89892865e-04,
          -3.90197878e-04, 6.68236800e-03, 7.73835811e-04,
          -4.29183058e-03, -2.06364552e-03, 3.94059345e-03,
          -2.51120568e-04, -4.37942147e-03, 1.42265577e-03,
          -1.87053171e-03, 2.57378723e-03, 5.62136481e-03,
          3.23459459e-03, 1.91457046e-03, 8.84075300e-04,
          -2.80304044e-03, -9.10714921e-03, -1.85715931e-03,
          -2.22599367e-03, 4.92713181e-03, 8.85079894e-03,
          2.14986457e-03, 1.61426142e-03, -3.49602406e-03,
          -3.48333525e-03, -3.55371134e-03, 3.58521868e-03,
          2.86375260e-04, 8.43043160e-03, 2.42160447e-03,
          -4.07025917e-03, -1.24732603e-03, -2.55194097e-03,
          -5.11598308e-04, -2.77600950e-03, 4.16190224e-03,
          -2.22703209e-04, 5.37077896e-03, 5.89890918e-03,
          7.60047138e-03, 4.28540539e-03, 2.01130449e-03,
          -4.74063586e-03, -8.25358834e-03, -4.07671323e-03,
          -2.53305607e-03, 3.22105503e-03, 2.29902402e-03,
          4.21922840e-03, 9.67023522e-03, 2.88076722e-03, 4.24726953e-04,
          -4.93877342e-05, 1.48173864e-03, -2.32685893e-03,
          -3.30492342e-03, -1.47841836e-03, -5.46321599e-03,
          -4.50870767e-03, -3.76010174e-03, -4.92533017e-03,
          1.46258436e-03, 2.40113819e-03, -1.41072246e-06,
          -1.86922238e-03, 6.33922219e-03, -8.54651444e-05,
          -3.22643295e-03, -4.52488009e-03, -7.66307639e-04,
          4.25215624e-03, -2.05169804e-03, 3.36208555e-04,
          -1.95436482e-03, -8.99557315e-04, 5.89255616e-03,
          1.15454020e-02, 3.46933096e-03, -2.73213652e-03,
          -1.27667584e-03, -3.69698252e-03, -7.30686169e-03,
          -7.50059308e-03, 3.43260798e-03, 8.56355671e-03,
          2.40099127e-03, -6.36189524e-03, -2.90165795e-03,
          1.05416973e-03, -4.99102799e-03, -2.86091352e-03,
          -4.04066825e-03, 8.18871986e-03, 6.04727212e-03,
          -1.24554220e-03, -2.75270827e-03, 4.61719465e-03,
          5.80596877e-03, 1.75601395e-04, -3.12326266e-03,
          -2.63325498e-03, -2.33203266e-03, -1.53206242e-03,
          -9.74118535e-04, 4.51214705e-03, 8.66245013e-03,
          4.43680305e-03, -5.63617912e-04, -4.13505593e-03,
          -6.47161994e-03, 4.78023943e-03, 5.08888345e-03,
          1.04740250e-03, -2.75667757e-03, 3.17930896e-03,
          1.07496511e-03, -1.44945108e-03, -8.19290406e-04,
          -1.81540730e-04, -2.10704142e-03, -5.25288796e-03,
          -4.53015091e-03, -2.78036436e-03, 9.27137863e-03,
          2.18456192e-03, 7.10143708e-04, 5.74784470e-04,
          -2.28623953e-03, -5.99457650e-03, -7.35663949e-03,
          -2.89129606e-03, 2.50281859e-03, 1.09273605e-02,
          4.97986749e-03, 3.93348892e-04, -3.54010542e-03,
          -7.52447173e-03, -8.43326747e-03, -5.56398556e-03,
          -5.55897458e-03, -1.31855428e-03, 1.27170272e-02,
          3.38877994e-03, 9.63638071e-04, -5.31874085e-03,
          -6.30493229e-03, 2.53439229e-03, -8.39105714e-03,
          -8.84854700e-03, -7.88745005e-03, 8.89547821e-03,
          2.21383828e-03, 6.61282241e-03, 4.31894418e-03, 1.85039151e-03,
          4.60586976e-03, 6.67893692e-05, -1.88656710e-03,
          -6.87985588e-03, 4.61916160e-03, -2.81521422e-03,
          1.40296324e-04, -1.77098287e-03, 9.84568731e-04,
          -5.96897770e-03, -5.16911445e-04, 1.26818210e-04,
          8.49157281e-04, 1.18463822e-02, 1.41298713e-03, 4.04135371e-03,
          -4.26298799e-03, -6.19868329e-03, -1.45206135e-03,
          4.30287514e-03, 5.06921764e-03, -1.32740522e-03,
          8.66014138e-03, -6.34698290e-03, -2.32213829e-03,
          -1.19122099e-02, -5.26527688e-03, 1.17945829e-02,
          8.00317340e-03, 6.68893661e-03, -2.34783464e-03,
          4.27067326e-03, -2.23155762e-03, 3.70367500e-03,
          -3.60084960e-05, 7.04212859e-03, 8.38206243e-03,
          7.73082767e-03, 6.98791584e-03, -4.00139764e-03,
          9.90461372e-03, -9.49021894e-03, -5.83520206e-03,
          -1.06293000e-02, -3.48703004e-04, 2.72437884e-03,
          -6.05923415e-04, 3.29519884e-04, -1.98898953e-03,
          1.01957610e-02, -1.22852018e-03, -6.59325486e-03,
          -1.14177158e-02, -1.76948693e-03, -8.62492435e-03,
          -8.70397221e-03, -6.74950797e-03, 1.97636685e-03,
          1.64681207e-02, 9.94661078e-03, 1.48846928e-04,
          -1.80942973e-03, -3.41626001e-03, 1.77920307e-03,
          8.65465123e-03, 1.07652573e-02, -1.32332474e-03,
          1.51665127e-02, -4.87432728e-04, -7.99423736e-03,
          -1.52596785e-02, -3.17567657e-03, -1.34555809e-03,
          2.23239954e-03, 3.57640721e-03, 6.54149195e-03, 1.79831050e-02,
          5.98553428e-03, -6.78781886e-04, -9.61868931e-03,
          -3.68289719e-03, -1.42598366e-02, -7.08968984e-03,
          -8.79785419e-03, 9.68347362e-04, 1.52840223e-02,
          3.81838414e-03, 1.86628988e-03, -2.11649388e-03,
          -1.29215783e-02, -1.32169928e-02, -3.93998297e-03,
          1.96733978e-03, 5.34054870e-03, 1.21035175e-02, 1.35724514e-03,
          1.60330685e-03, -7.14636687e-03, -1.48142288e-02,
          -7.14948028e-03, -6.01276197e-03, -3.08424671e-04,
          8.44981242e-03, 1.49123194e-02, 2.02858457e-04, 3.00066359e-03,
          -6.31180219e-03, -1.17221670e-02, -6.58296887e-03,
          -3.74037935e-03, 5.03753358e-03, 1.46375392e-02,
          1.86952669e-02, 3.61302798e-03, 1.11329008e-03,
          -8.18597991e-03, -1.27032800e-02, -5.80673572e-03,
          -2.26120767e-03, 2.94017675e-03, 6.85810018e-03,
          7.73291988e-03, 2.06239265e-03, -6.36639073e-03,
          -1.09125106e-02, -1.14655290e-02, 1.02274492e-03,
          -4.04062634e-03, 2.59487214e-03, 5.30547928e-03,
          4.00033640e-03, 3.16296401e-03, -3.23751499e-03,
          -8.51878524e-03, -3.52086965e-03, -6.82346290e-04,
          2.06426834e-04, 6.14597276e-03, 1.25680678e-02, 1.14395395e-02,
          3.87236942e-03, -1.74350571e-04, -9.52038728e-03,
          -8.47983267e-03, -1.60370138e-03, 2.71951384e-03,
          9.96005069e-03, 6.19106786e-03, 4.29723784e-03, 4.39125532e-03,
          -2.60732602e-03, -1.04600461e-02, -3.19054956e-03,
          4.82808362e-04, -2.93324789e-04, -1.97016634e-03,
          -7.92936189e-04, -2.51705898e-03, 7.84068427e-04,
          -4.78854310e-03, -9.24467575e-03, -7.16380449e-03,
          -6.23167900e-04, 5.18506253e-03, 3.61042359e-04,
          -3.65602132e-03, -5.61061455e-03, 3.14252847e-03,
          -4.93109583e-05, -3.32080293e-03, -6.11313211e-04,
          -1.10460585e-03, 1.67381612e-03, 3.63324676e-03,
          -1.82119594e-03, 2.44074315e-03, -1.84498995e-03,
          -4.10482939e-03, -9.61806253e-03, -9.26135480e-03,
          4.78546461e-03, 1.11395004e-03, 5.56701503e-04,
          -3.81457154e-03, -2.54048174e-03, 3.31195514e-03,
          -2.80807813e-04, -1.36841554e-03, -1.93085158e-04,
          2.29676208e-03, 2.25165905e-03, 2.97173159e-03,
          -3.87985935e-03, -5.91549603e-03, 1.27174170e-03,
          -2.11629595e-04, -6.91238092e-03, -9.72269452e-04,
          2.73922901e-03, 7.19267526e-04, 2.64339359e-03, 4.18410200e-04,
          -3.53159546e-03, -4.87016095e-03, -6.67395722e-03,
          -8.79200548e-03, -4.82875068e-04, 7.82803819e-03,
          -7.62981945e-04, 2.98259803e-03, 2.26079719e-03,
          -2.57275556e-03, 4.43324156e-04, -1.65748701e-03,
          -4.86346148e-03, 1.01452169e-03, 1.84239435e-03,
          -3.58547689e-03, 8.80889304e-04, 7.50939548e-03,
          -2.75889132e-03, -2.84927664e-03, -5.83883608e-03,
          -1.05324043e-02, -2.79582851e-03, 1.75888475e-03,
          7.11833360e-04, 2.78563285e-03, -6.67898566e-05,
          -7.14430865e-03, -5.59848035e-03, -8.82113632e-03,
          -9.35477763e-03, -2.27887998e-03, 6.21420378e-03,
          9.38893668e-03, 7.13363290e-03, -3.39058158e-03,
          -6.81901863e-03, -3.87974805e-03, 1.89459720e-03,
          2.48767872e-04, 3.22507578e-03, -1.73334935e-04,
          -2.96275131e-03, -4.47852857e-04, 4.90850164e-03,
          -1.43532618e-03, -7.40702450e-03, -6.86064130e-03,
          -9.64487996e-03, -6.07327046e-03, 4.07018559e-03,
          8.14888440e-03, 1.15269041e-02, 3.48798069e-03, 2.26865383e-03,
          -1.64291484e-03, -3.26906913e-04, -4.49412689e-03,
          8.72444769e-04, 6.33284217e-03, 4.17401223e-03,
          -3.05813825e-04, -7.00585637e-03, -8.48012790e-03,
          1.45162456e-03, 2.39325035e-03, -1.22033502e-03,
          7.76295969e-03, 7.19872303e-03, 1.38411717e-03,
          -5.29870763e-03, -6.51091710e-03, -1.30636171e-02,
          -6.07969612e-03, -1.00790579e-02, -9.11411177e-03,
          3.46481381e-03, 7.41934590e-03, 3.69148515e-03, 5.87215926e-03,
          7.51320319e-03, 3.81942978e-03, 1.51187915e-03, 1.32695865e-03,
          -1.36484019e-03, 5.25833899e-03, 3.74134770e-03,
          1.52675365e-03, -8.98761558e-04, -2.79620057e-03,
          -1.09969666e-02, -3.37652746e-03, -4.18769568e-03,
          -3.79195623e-03, 8.21819704e-04, 6.27306104e-03,
          -1.12137408e-03, -3.18141514e-03, -1.45233015e-03,
          -1.00943604e-02, -8.61533731e-03, -3.50216171e-03,
          -5.01121394e-03, 3.49640893e-03, 5.74682723e-04,
          -3.86551302e-03, -3.65230301e-03, 3.52217141e-03,
          -9.64272209e-03, -3.76044028e-03, 1.47172133e-03,
          2.77322368e-03, 5.40080422e-04, 7.40034040e-03, 4.12319880e-03,
          9.10727598e-04, -6.69902051e-03, -3.14145326e-03,
          1.04509131e-03, 9.01807914e-04, -5.17473964e-04,
          3.30945407e-03, 8.58149584e-03, 7.49668386e-03, 5.22694434e-04,
          -1.73688680e-03, -4.25545219e-03, -2.97367037e-03,
          3.73757561e-03, 6.45960495e-03, 6.06640847e-03,
          -2.02824455e-03, -4.08365391e-03, -2.94442265e-03,
          -1.61717203e-03, -1.46306707e-02, -8.93987808e-03,
          -1.86537334e-04, 4.93890978e-03, 3.25500011e-03,
          1.62572647e-03, 2.32611084e-03, 1.77830248e-03,
          -4.50946623e-03, -1.00696590e-02, -3.42403050e-03,
          4.36833035e-03, 8.14816728e-03, 2.95086089e-03, 1.03943497e-02,
          6.35994971e-03, 1.17336132e-03, -3.33348219e-03,
          -9.80285369e-03, -7.03845499e-03, 7.14813592e-04,
          8.65096971e-03, 9.47376899e-03, 6.28822530e-03, 6.55929139e-03,
          1.53994944e-03, -2.31560552e-03, -5.23083517e-03,
          4.66995826e-03, 5.68183092e-03, 1.21513996e-02, 9.75327473e-03,
          -1.24611659e-03, 2.07294681e-04, -2.76085129e-03,
          -2.69677606e-03, -6.47073332e-03, -2.66552903e-03,
          2.26053968e-03, 6.37816451e-03, -3.41411354e-03,
          -2.66205199e-04, -5.76083767e-05, -2.84186215e-03,
          -3.54261044e-03, -6.35144114e-03, -4.02673241e-03,
          -3.95592162e-03, 5.32484986e-03, 1.81139703e-03,
          2.87826336e-03, 3.24435742e-03, -3.83375562e-04,
          8.77905986e-04, -3.75153520e-03, 8.76730366e-04,
          -4.32794914e-03, -2.13286097e-04, 4.47307434e-03,
          7.72748142e-04, -1.32507167e-03, -2.71092460e-04,
          -1.97990169e-03, -4.98901308e-03, -1.92205526e-03,
          1.09347678e-03, 5.89799322e-03, 4.23651189e-03, 5.00999764e-03,
          5.16625028e-03, -4.16492723e-04, -7.16892444e-03,
          -5.66700380e-03, -5.08632697e-03, -5.26564196e-03,
          1.89476996e-03, 4.73636156e-03, 5.10367006e-03, 4.61477367e-03,
          -4.14367300e-03, -9.79032181e-03, -5.73881483e-03,
          -2.57678749e-03, 6.49330905e-05, 4.45819320e-03,
          3.78642860e-03, 6.48690248e-03, 4.73421207e-03, 8.89311836e-04,
          -3.93380551e-03, -4.83154738e-03, 4.35486763e-05,
          1.84660580e-03, 1.01784021e-02, 8.70231539e-03, 3.23625025e-03,
          1.69191277e-03, -5.35190152e-03, -4.55248775e-03,
          -9.87544283e-03, -5.48397796e-03, 3.24029475e-04,
          6.92839501e-03, 3.32227862e-03, 4.80758538e-03, 3.93643568e-04,
          -1.29248248e-03, -5.20782173e-03, -3.19761131e-03,
          -1.22421843e-04, 4.87182103e-03, 7.49366172e-03,
          5.73177263e-03, 2.82974821e-03, -2.97500379e-03,
          8.06311786e-04, -2.39800080e-03, -1.04906429e-02,
          -6.30472833e-03, -2.44905613e-03, -4.95644403e-04,
          3.55748693e-03, -1.06971001e-03, 3.58045450e-04,
          -3.78064043e-03, -3.01029417e-03, -4.50459635e-03,
          -2.08732509e-03, 9.40348674e-03, 1.28221689e-02,
          4.58472222e-03, 2.12579989e-03, -4.90291968e-05,
          -6.50263438e-03, -7.28427758e-03, -1.02774436e-02,
          -1.14100045e-02, 4.36024135e-03, 2.05880380e-03,
          6.08030846e-03, 3.29426234e-03, -2.20420747e-03,
          -9.74573079e-04, -2.71568098e-03, -3.83410807e-04,
          -7.97478016e-03, -2.06767325e-03, -1.00218947e-03,
          3.25418543e-03, 1.91989588e-03, 6.77057193e-04,
          -6.96144009e-04, -4.17150604e-03, -3.71111045e-03,
          -7.88248703e-03, 1.69320835e-03, 2.98593706e-03,
          1.63039379e-03, 6.11659139e-03, 2.31298921e-03,
          -2.44160602e-03, -6.64756820e-03, -1.82582939e-03,
          -8.75415187e-03, -7.71568972e-04, -1.01300888e-03,
          5.76281641e-03, 3.31797032e-03, 2.40644487e-03, 1.86804635e-03,
          1.73669157e-03, -4.84175188e-03, -8.15674197e-03,
          -2.59382580e-03, -1.92071777e-03, -5.88917756e-04,
          -2.95773870e-03, -1.12968625e-03, 1.66045339e-03,
          -2.20344402e-03, -5.51500265e-03, -7.81778712e-03,
          -3.55963566e-04, 4.51354124e-03, -7.60656665e-04,
          -7.36956252e-03, -4.77584545e-03, -1.42750086e-03,
          -1.10463693e-03, -3.07317288e-03, -9.32259392e-03,
          -2.80199898e-03, -1.22323027e-03, -4.97518107e-03,
          -1.15216395e-03, -3.15923500e-03, 2.86430749e-03,
          -6.54011208e-04, -5.05271135e-03, -4.34256159e-03,
          3.73669813e-04, 5.23139548e-04, -2.35470082e-03,
          7.02513280e-05, -3.34311998e-03, -2.08407408e-04,
          -6.04518643e-03, -4.94232867e-03, -1.07244095e-02,
          6.58126737e-05, 3.21537326e-03, -7.60560506e-04,
          -3.16230580e-03, -1.07329199e-03, 4.71506175e-03,
          4.80619445e-03, -8.71972181e-03, 7.09306565e-04,
          5.58085646e-03, 3.25618428e-03, -1.96239306e-03,
          3.72294540e-04, -1.75608310e-03, 1.66970456e-03,
          -1.57219358e-03, -4.99533070e-03, -3.90211260e-03,
          3.73145402e-03, 3.63843259e-03, 9.56072472e-04,
          -4.28869715e-03, -4.03796912e-05, 5.67303738e-03,
          -1.89727798e-05, -7.00612692e-03, -3.04075278e-04,
          7.37144088e-04, 6.24683104e-04, -1.36477605e-03,
          -4.12039086e-03, -7.17806863e-04, 2.04673898e-03,
          -5.98807400e-03, -1.36654463e-03, -3.20533710e-03,
          1.21186441e-03, 5.11281472e-03, 8.15932814e-04, 5.38000895e-04,
          -4.67915845e-04, 1.05976930e-03, -2.28392612e-03,
          -4.31869924e-03, 8.89170216e-04, 5.11245511e-04,
          8.65420792e-04, 1.57919910e-03, 5.59220882e-03, 5.12353005e-03,
          6.84284605e-03, 2.66499724e-03, -5.72798261e-03,
          -4.43045981e-03, -5.78487478e-03, 1.58036675e-03,
          3.64085101e-03, -7.34437723e-04, -1.85476325e-03,
          8.81696586e-04, -1.08239688e-02, -3.06582218e-03,
          2.94799777e-03, 1.85680902e-03, 4.07125708e-03, 2.52017984e-04,
          7.09731458e-03, 1.97483669e-03, -3.03215301e-03,
          -7.92655908e-03, -7.00620608e-03, -1.92155002e-03,
          -1.20991119e-03, 3.52840149e-03, 7.28966016e-03,
          5.37850615e-03, 8.33397789e-04, -1.89111568e-03,
          -5.47900097e-03, -3.45601072e-03, -1.89812295e-03,
          -3.00774281e-03, -3.72535054e-04, 7.84877047e-04,
          5.73671702e-03, 1.82734890e-04, -9.54615884e-03,
          -1.01496046e-02, -1.18222495e-03, 2.80762417e-03,
          1.93916028e-03, -1.37142441e-03, 5.78625302e-04,
          8.02106597e-03, 6.39553880e-04, -8.38941615e-03,
          -8.96857120e-03, -5.08884387e-03, -4.27930523e-03,
          -2.98198225e-04, 6.92585134e-04, 4.04324289e-03,
          4.28679818e-03, 2.45725526e-03, -4.67705727e-03,
          -1.86645950e-03, -1.08643121e-03, 5.23245195e-03,
          2.40262481e-04, -3.67413420e-04, -2.03647325e-03,
          4.35920060e-03, 4.35894867e-03, -4.34529502e-03,
          -7.56292790e-03, 1.39149989e-03, 6.11105748e-03,
          4.27527353e-04, -9.29217262e-04, -2.58652400e-03,
          -7.95932545e-04, 6.22824859e-03, -3.58853582e-03,
          -3.31363361e-03, -1.75131089e-03, 1.30336406e-03,
          -4.46909573e-03, -7.14275939e-03, -6.78475434e-03,
          -1.61631417e-03, 1.84056233e-03, -5.18096518e-03,
          -6.29986823e-03, 3.81168094e-04, 6.53111329e-03,
          -3.65979481e-03, -2.51157745e-03, -1.00111198e-02,
          -3.53009091e-04, -2.27024037e-04, -4.81205527e-04,
          -4.72423667e-03, -2.70241522e-03, 3.67804710e-03,
          -5.12967631e-03, 9.44345316e-04, -5.44544309e-03,
          -2.81205022e-04, 4.10609180e-03, -1.09073671e-03,
          1.37875020e-03, -6.60143734e-04, -3.05393315e-03,
          -5.35409246e-03, -3.65104876e-03, -5.92837343e-03,
          8.01406743e-04, 6.36974908e-03, -1.19749340e-03,
          -9.04336164e-04, -6.63966220e-03, -5.17565571e-03,
          2.42812606e-03, 6.65139500e-03, -3.19296285e-03,
          4.23440430e-03, 3.79426475e-03, -1.01296086e-04,
          -3.11321835e-03, -4.20423411e-03, -3.69215821e-04,
          -5.46991220e-03, -2.65470269e-04, -2.66509131e-03,
          -6.38626225e-04, 4.32731770e-03, -4.71900078e-03,
          -2.83898041e-03, -9.62702930e-03, 2.62583466e-03,
          -3.56810563e-03, 6.64283708e-03, -2.82698497e-03,
          2.11596722e-03, 5.79877617e-03, 3.68646695e-03,
          -1.73296384e-03, -4.05164203e-03, -2.77747004e-03,
          5.32115111e-04, 5.01872133e-03, 3.30446381e-03, 2.37529702e-03,
          3.22438800e-03, 5.68509800e-03, 2.75003863e-03, 1.21271599e-03,
          -4.65497002e-03, -4.41557495e-03, 4.00984398e-04,
          -3.48276692e-04, 2.76554609e-03, 3.82925407e-03,
          -5.20486291e-03, -6.76977914e-03, -4.37562494e-03,
          2.64790165e-03, 8.36642634e-04, 5.50736254e-03, 1.47161388e-03,
          1.44381332e-03, 3.67679656e-03, -2.34505697e-03,
          -5.99194411e-03, -6.76061353e-03, 2.31543003e-04,
          -2.43846118e-03, 1.56855385e-03, 5.25469542e-04,
          5.85729256e-03, 2.12508766e-03, 6.64218981e-03, 7.65761640e-03,
          9.59684839e-04, -6.38714340e-03, -4.94371913e-03,
          -2.88216816e-03, 3.48252873e-03, 5.79192489e-03,
          -1.66612898e-03, -1.20305223e-03, -2.86976853e-03,
          3.21546657e-04, -2.38722074e-03, -4.68683755e-03,
          -4.15789708e-03, 1.47889135e-03, 4.95143281e-03,
          8.02962016e-03, 2.53764237e-03, 1.31295397e-04,
          -6.37212628e-03, -2.58603995e-03, -4.40521492e-03,
          -4.17308707e-04, 3.90883768e-03, 1.21711120e-02,
          1.47227466e-03, -2.97277188e-03, -3.97097459e-03,
          -1.28725136e-03, -7.61742983e-03, -4.91542090e-03,
          -2.61964975e-03, 1.51104107e-03, 7.76074361e-03,
          -1.06986042e-03, -2.34052277e-04, -5.54274209e-03,
          -4.57285409e-04, -1.85954291e-03, 6.76876924e-04,
          -4.15845867e-03, -1.16516789e-03, 1.21558066e-02,
          8.43177736e-03, 5.80733456e-03, -5.72755816e-04,
          -5.37036126e-03, -5.61151654e-03, -2.07225513e-03,
          -1.75368774e-03, 7.53352884e-03, 1.22538665e-02,
          -4.51783009e-04, -2.30743759e-03, -3.29158711e-03,
          1.64530822e-03, -6.12050155e-03, -6.29955484e-03,
          -3.38339829e-03, 8.85296497e-04, 1.44708175e-02,
          2.83785141e-03, -2.27076490e-03, -1.08326657e-03,
          -3.32571077e-03, -2.06048205e-03, -3.24506336e-03,
          3.64681910e-04, 8.20478518e-03, 1.14843845e-02, 9.19289654e-04,
          4.59898589e-03, 2.88339867e-03, -6.18440844e-03,
          -5.17450692e-03, 2.05837860e-04, 1.92159379e-03,
          9.79490671e-03, 4.34517907e-03, -7.46547431e-03,
          -4.70822863e-03, -5.41070825e-04, -3.07474751e-03,
          -1.17689301e-03, 7.49660097e-03, 5.76154515e-03,
          7.43264705e-03, 4.88019036e-03, -2.81821773e-03,
          -2.78196973e-03, 4.37438197e-04, -3.09284753e-03,
          -6.65181084e-03, -2.88873399e-03, -3.68872844e-03,
          6.35951175e-04, 2.38586962e-03, -6.68567512e-03,
          -6.15802268e-03, -2.57539682e-06, -3.23807239e-03,
          -1.03821019e-02, 1.12270645e-03, -7.60483742e-03,
          3.97183932e-03, 6.27777819e-03, -4.44592908e-03,
          -5.56693366e-03, 1.57914474e-03, 1.34932890e-03,
          -1.53916387e-03, 9.37087927e-03, 5.69914700e-03,
          5.00724418e-03, 7.01455772e-03, 6.58023113e-04,
          -1.81739626e-03, -1.25340314e-03, 3.43611464e-03,
          -2.90128333e-03, 3.31635354e-03, 3.42704775e-03,
          5.00780251e-03, 3.84737086e-03, -7.90327135e-03,
          -6.31048391e-03, -4.33710264e-03, -4.70849173e-03,
          -5.59593085e-03, 8.30586534e-03, 2.32678954e-03,
          5.53205376e-03, 3.72712663e-03, -3.09838261e-03,
          -1.39824569e-03, -1.78054464e-03, -2.88653816e-03,
          -6.09275792e-03, 2.23886711e-03, 4.32804134e-03,
          4.40453831e-03, 5.01488568e-03, 2.23198743e-03,
          -2.39256793e-03, -3.00934655e-03, 2.09194445e-03,
          -8.24240036e-03, -1.42034329e-03, -1.20073782e-04,
          2.30008247e-03, 1.19856244e-03, 2.87218485e-04, 3.18107428e-03,
          2.06637988e-03, 3.85240000e-03, -4.25408967e-03,
          -3.70569271e-03, -2.40126089e-03, -4.58623609e-03,
          4.63771727e-03, -1.98632479e-03, -4.89455182e-04,
          -1.90417992e-03, -3.55726480e-03, -8.00624304e-03,
          -2.37204880e-03, 9.62235208e-04, 2.15300592e-03,
          4.71486623e-04, -3.31889139e-03, -9.84623912e-04,
          1.09575456e-03, 1.81997381e-03, 1.38534058e-03, 2.09212466e-03,
          -2.13002277e-04, -1.21192448e-03, 8.55413673e-04,
          5.00313099e-03, 5.42324875e-03, 6.29198086e-03, 2.85801408e-03,
          -5.45973238e-03, -1.05019100e-02, -5.28914249e-03,
          -7.41190696e-03, 6.76905550e-03, 7.77794933e-03,
          3.38910788e-04, -3.11855762e-03, 1.46571244e-03,
          -3.16722831e-03, -7.96298962e-03, -1.98594667e-03,
          2.04414316e-03, -5.62864589e-03, -2.24965089e-03,
          -2.10889312e-03, 5.16710198e-03, 4.85885656e-03,
          6.96697552e-03, -1.25671655e-03, -3.02814064e-03,
          -6.28507743e-03, 2.45497352e-03, 1.52416737e-03,
          -3.43625317e-03, -3.34930327e-03, 3.18536675e-03,
          2.10464024e-03, -8.89077131e-03, -6.31802855e-03,
          1.96969975e-03, 6.97303610e-03, 4.36495105e-03, 6.36085228e-04,
          -5.63652604e-04, 9.27453861e-03, -1.92598451e-03,
          -2.07402441e-03, -4.36662463e-04, 5.92985516e-03,
          6.89154444e-03, -5.56669729e-05, -2.66900985e-03,
          -4.54027858e-03, 4.75077098e-03, -4.78483457e-03,
          -1.38594757e-03, 5.30141042e-05, 4.39734757e-03,
          6.21265732e-03, 3.29340040e-03, 3.65456054e-03, 1.72400742e-03,
          7.67087750e-03, -2.17829249e-03, -1.03737190e-02,
          -6.95496099e-03, 3.10057797e-03, 6.99560577e-03,
          4.36282111e-03, 1.40536763e-03, -4.53468598e-03,
          -3.84256756e-03, -1.06919687e-02, -7.54016778e-03,
          -5.03964210e-03, 1.99691067e-03, 9.49689746e-03,
          3.65067506e-04, -2.87133199e-03, -3.06639913e-03,
          3.66717181e-03, -3.16088088e-03, -6.44800544e-04,
          -6.65895233e-04, 2.42856448e-03, 7.17880344e-03,
          4.61045746e-03, 8.60871561e-03, 3.33603611e-03, 6.91093644e-03,
          -9.87868989e-04, -2.60140252e-04, 2.88909185e-03,
          2.69820425e-03, 7.34063564e-04, 1.81540241e-03, 2.19893060e-03,
          -4.03125817e-03, -4.34151525e-03, -6.17858488e-03,
          -4.78682807e-03, -3.94609105e-03, -4.71697701e-03,
          -4.92096739e-03, -7.69592472e-04, 4.80349595e-03,
          1.48876267e-03, 8.72315373e-03, 1.16100034e-03,
          -2.13379593e-04, -4.43100138e-03, -9.19953175e-03,
          7.72386277e-03, 6.07527047e-03, 7.85394758e-03,
          -2.97279353e-03, 4.65269713e-03, -2.07045628e-03,
          -4.49587387e-05, -5.78656909e-04, 3.70184192e-03,
          3.98463337e-03, 4.13985969e-03, 2.49306252e-03,
          -7.57682882e-03, 2.34015705e-03, -4.39980952e-03,
          -7.08964514e-03, -9.02256556e-03, 7.39182520e-04,
          -5.60692092e-03, 4.87243844e-04, 6.49557775e-03,
          6.20853563e-04, 9.27561708e-03, 4.08475025e-05, 3.16612743e-04,
          -9.49992318e-05, -2.19113030e-03, 3.17497412e-03,
          2.82433396e-03, -7.49350176e-04, -3.22110695e-03,
          7.39393244e-03, 4.98158578e-03, 4.82892664e-03, 3.03766283e-04,
          1.79364812e-03, -1.20293442e-03, 6.50929706e-03,
          3.77297960e-03, -1.91068253e-03, 5.58411842e-03,
          -3.76078708e-04, -8.73526651e-03, -1.60674397e-02,
          -3.18872323e-03, -7.70450162e-04, 7.41907349e-03,
          7.61358021e-03, 4.32539918e-03, 6.11541793e-03,
          -4.98658326e-03, -8.20738077e-03, -1.32090142e-02,
          -3.87450564e-03, 5.62218344e-03, 1.58550311e-03,
          4.66627674e-03, -1.78541604e-03, 7.10301427e-03,
          2.93517881e-03, 3.80219333e-03, -1.03743584e-03,
          4.08534333e-03, 1.28116133e-03, 6.24154741e-03, 8.15221388e-03,
          4.75425180e-03, 7.43672065e-03, -4.48566070e-03,
          -3.79628758e-03, -3.55291623e-03, 6.20758953e-03,
          -4.66395664e-04, 1.31785509e-03, 3.48834856e-03,
          4.86422516e-03, -9.48871002e-06, -6.28479477e-03,
          -2.43990100e-03, -4.98946011e-03, -4.00411244e-03,
          -3.02732340e-04, 2.43170792e-03, 3.41704441e-03,
          5.87522238e-03, 3.83045524e-03, -5.60188480e-03,
          -8.79182713e-04, -4.25299909e-03, -7.49594718e-03,
          4.98881564e-03, 4.33895271e-03, 3.16302292e-03, 1.38013170e-03,
          -1.90148200e-03, -3.59131093e-03, -3.56932776e-03,
          2.40105810e-03, 5.59912808e-03, 7.15396274e-03, 6.24043401e-03,
          9.34968144e-03, 7.30642700e-04, -5.45065210e-04,
          -1.02909154e-03, -4.37792594e-04, -1.35963853e-03,
          -1.99528690e-03, 9.32375900e-04, 5.86051540e-03,
          2.26980238e-03, 4.79553652e-04, -2.90868338e-03,
          -3.93586000e-03, -2.42035580e-03, -7.30217714e-03,
          -4.53423429e-03, 1.61933119e-03, 5.54616470e-03,
          1.30468910e-03, -4.81425039e-03, -9.05196369e-03,
          -2.49395816e-04, -3.27065168e-03, -5.99262118e-03,
          4.74525662e-03, 8.67622718e-03, 1.49529316e-02, 7.92073645e-03,
          -1.07080676e-03, -4.15903004e-03, -2.99099390e-03,
          3.33953416e-04, -5.74759627e-03, -3.09938192e-03,
          6.57676253e-03, 1.21873775e-02, 1.29318156e-03,
          -1.14554900e-03, -3.45022534e-03, -3.14379274e-03,
          4.36923327e-03, 2.20571691e-03, 9.85915773e-04,
          -1.05733797e-03, 1.85726513e-03, 2.42342171e-03,
          -3.50964675e-03, 1.24078454e-03, -6.80387369e-04,
          -2.16995162e-04, -3.13302153e-03, 4.02159785e-04,
          -3.27336485e-04, -3.28992563e-03, 1.74801645e-03,
          -1.99897913e-03, -1.30416651e-03, 1.87482196e-03,
          2.76332628e-03, 1.22919737e-03, 8.63353722e-04,
          -2.43937317e-03, 1.45464321e-03, -2.33712446e-04,
          3.73389269e-03, 2.33305083e-03, -2.70257308e-03,
          -1.96865364e-03, 4.41690150e-04, -2.59036571e-03,
          -7.21368589e-04, -2.49646790e-03, -9.45480540e-04,
          4.99434397e-03, 1.02123816e-03, -2.51731300e-03,
          -7.04151439e-03, -1.82908145e-03, 9.74240131e-04,
          5.16733620e-03, -2.75246799e-03, 3.41094937e-03,
          1.95461046e-03, -3.65942600e-03, -2.60585011e-03,
          -1.41235837e-03, -4.33074916e-03, 3.07139382e-03,
          -5.01842424e-03, -4.87811863e-03, -3.09913373e-03,
          4.02656011e-03, 3.41987819e-03, 1.01233704e-03,
          -5.46333194e-03, -6.96219690e-03, 1.21770171e-03,
          2.94511061e-04, -6.88059302e-03, -3.05175711e-03,
          5.95357316e-03, -1.90468074e-03, -3.48643167e-03,
          -4.03110543e-03, 6.02044864e-04, 7.20503461e-03,
          -6.82254042e-03, -8.39383714e-03, -3.72947217e-03,
          7.61870574e-03, 7.68701546e-03, 3.05412477e-03,
          -3.58566828e-03, 5.61142369e-05, 4.02228534e-03,
          -1.05492976e-02, -8.00728891e-03, -9.55265574e-03,
          -1.54912152e-04, 7.67164922e-04, -2.03875871e-03,
          -4.89085354e-03, -1.00118080e-02, -7.45452521e-03,
          -5.88501012e-03, 2.27485830e-03, 4.40989295e-03,
          3.36937048e-03, 9.86377243e-04, -1.09912944e-03,
          -1.23160818e-04, -3.62739712e-03, -6.83019357e-03,
          -1.20317712e-02, -3.66172800e-03, -6.11633062e-04,
          -4.40649746e-04, 6.89215492e-03, 1.09125208e-03,
          -7.18833786e-03, -3.14813177e-03, -1.73327536e-03,
          -2.89040152e-03, 4.89329826e-03, 5.64574031e-03,
          2.60360097e-03, 6.14503806e-04, -7.03747966e-04,
          1.37147319e-04, 3.19921854e-03, -1.98075315e-03,
          -5.63016301e-03, -1.44020445e-03, 1.36466169e-05,
          3.27595859e-03, -3.99050215e-04, 1.04361540e-03,
          6.62328617e-04, -3.39424377e-03, -3.78421182e-03,
          6.57245051e-04, 4.85607842e-03, -4.17833682e-03,
          -7.83323590e-03, -9.68638808e-03, 1.19883288e-03,
          -4.19702334e-03, -2.06212210e-03, -5.72653444e-05,
          -9.87448730e-04, 4.02118592e-03, 2.06489232e-03,
          1.49693934e-03, 2.34714407e-03, 1.74308557e-03, 7.06822611e-03,
          5.48718497e-03, 1.23133138e-03, 1.66982994e-03, 5.50970621e-03,
          -4.36915038e-03, -6.26623956e-03, -7.14361342e-03,
          6.15380751e-03, 4.92629828e-04, -1.80779211e-03,
          -4.72437066e-04, 5.44502866e-03, 5.22604771e-03,
          -2.80669029e-03, -1.26279956e-02, -8.55416525e-03,
          7.12064677e-04, 4.26092511e-03, 4.05076891e-03, 1.53720763e-03,
          8.66209622e-03, 4.85494221e-03, -2.55599152e-03,
          -6.35903142e-03, -4.61399788e-03, 2.40370660e-04,
          3.07835895e-03, 5.79693494e-03, 2.94037536e-03, 6.86044106e-03,
          5.61659131e-03, -3.50657757e-03, -6.40864065e-03,
          -6.91279350e-03, 6.57721888e-03, 3.47974803e-03,
          -7.00566277e-04, 1.07352016e-03, 5.30956732e-03,
          2.45109922e-03, -6.82241237e-03, -6.65255636e-03,
          -5.02231531e-03, 6.91340072e-03, 1.41135440e-03,
          9.55492957e-04, -8.75113765e-04, 7.44060939e-03,
          4.07167757e-03, 1.28996733e-03, -5.42372232e-03,
          -1.12668816e-02, -4.23966115e-03, 1.03910081e-03,
          5.35437046e-03, 6.50832569e-03, 2.77062831e-03, 5.46137104e-03,
          2.96694087e-03, -3.65278720e-05, -5.81617747e-03,
          2.32570968e-03, 2.25969451e-03, 8.72655120e-03, 9.61202662e-03,
          2.13143276e-03, 4.89101745e-03, -3.01220198e-03,
          -1.96110783e-03, -7.91500229e-03, 2.64425064e-03,
          -6.96275893e-05, 1.77375833e-03, -6.43858686e-04,
          -5.02094207e-03, -1.70785264e-04, -3.14843230e-04,
          7.19100295e-04, -7.68352626e-03, 9.02505824e-04,
          2.74164457e-04, 9.59207129e-04, -6.07342052e-04,
          3.44053283e-03, 4.93104011e-03, 4.29940410e-03, 4.79676062e-03,
          -3.34884459e-03, 2.08959728e-03, -3.56993708e-03,
          3.65998334e-04, 5.76473307e-03, 2.38585914e-03, 5.09924907e-03,
          3.73722753e-03, -3.87009373e-03, -7.39608286e-03,
          3.61376489e-03, 3.88176972e-03, 5.52137243e-03, 4.39516874e-03,
          -4.50406969e-03, -3.98880662e-03, -3.29937343e-03,
          3.42338067e-03, -2.43473216e-03, 3.69907776e-03,
          -2.29630081e-04, 1.44781882e-03, -2.14603823e-03,
          -8.65688827e-03, -3.49685038e-03, -5.38706500e-03,
          -2.39330833e-03, -7.01653014e-04, 5.16603561e-03,
          3.39358137e-03, 1.05236162e-04, -7.08844513e-03,
          8.95957870e-04, 1.05191465e-03, -2.54333788e-03,
          -6.04856573e-03, -1.05030807e-02, 8.45138263e-03,
          9.09608044e-03, 7.74910720e-03, 4.90844436e-03,
          -3.55810253e-03, -5.56233281e-04, -3.73971160e-03,
          -8.54321476e-03, -1.24022150e-02, -1.79616024e-03,
          3.84841277e-03, 6.75016083e-03, 4.40357253e-04,
          -6.97707152e-03, -3.80338728e-03, -5.18722180e-03,
          1.72346050e-03, -1.20786030e-03, 1.00073023e-02,
          8.04399140e-03, 1.73528900e-03, -3.95877520e-03,
          -4.55536973e-03, -4.65483591e-03, 2.97456369e-04,
          -5.96252969e-03, -7.30131147e-03, 2.20498489e-03,
          5.64971892e-03, 5.27413096e-03, -1.05767802e-03,
          -2.00917851e-03, 1.34733517e-03, -1.52991968e-03,
          -6.75409473e-03, -3.91508266e-03, 4.93213825e-04,
          7.98048545e-03, 9.50536318e-03, 2.76452187e-03, 6.69929199e-03,
          4.71103564e-03, -4.90097748e-03, -1.21145416e-02,
          -9.96674318e-03, -2.73959874e-03, 6.45174319e-03,
          4.78655891e-03, 9.13052633e-03, 1.55206793e-03, 3.19477404e-03,
          -2.70887278e-04, -9.45016276e-03, -6.13568444e-03,
          1.06519542e-03, 6.95926929e-03, 8.71825591e-03, 9.29602655e-04,
          -3.32895084e-04, 1.21861044e-03, -5.19955996e-03,
          -1.14564477e-02, -9.76791605e-03, 1.30252994e-03,
          6.74804719e-03, 4.52521443e-03, 3.98619287e-03, 6.81451894e-03,
          4.95302258e-03, -3.77647346e-03, -1.17612137e-02,
          -7.10569369e-03, -2.74304417e-03, -3.33218327e-06,
          2.33850884e-03, 6.36507105e-03, 1.81355455e-03, 2.56946962e-03,
          2.82237493e-03, -3.26741813e-03, -9.08099115e-03,
          -4.82630078e-03, -3.96617781e-03, -7.54704291e-04,
          1.66078622e-03, 1.72845309e-03, -1.05927628e-03,
          -6.75318809e-03, -1.22576403e-02, -4.49514342e-03,
          4.17275354e-03, 1.13140605e-02, 7.46629806e-03, 2.19352776e-03,
          -1.68116670e-03, -2.36016954e-03, -1.70327839e-03,
          -7.06662238e-03, -3.13233439e-04, -5.67857060e-04,
          2.02622078e-03, 1.59835233e-03, -1.63183198e-03,
          -1.73238886e-03, -1.15637772e-03, 2.98048323e-03,
          -1.69817149e-03, -2.99209356e-03, -5.92774246e-03,
          -1.21367606e-03, -2.76724168e-04, -1.90774153e-04,
          1.48477918e-03, 2.64863425e-04, 1.00356946e-03,
          -6.00716751e-03, -8.75998195e-03, -1.14930049e-02,
          8.69984971e-04, 1.77271303e-03, -3.30606475e-04,
          -4.54733474e-03, 6.21301529e-04, 4.88620019e-03,
          1.76047918e-03, 2.83057196e-03, -5.93764056e-03,
          -6.47630589e-03, -3.27584217e-03, -6.40579313e-03,
          1.80434217e-04, 2.28460785e-03, 3.83354328e-03, 8.42281966e-04,
          -4.36525512e-03, -9.32173338e-03, -1.61500566e-03,
          -5.22854156e-04, -2.51458469e-03, -5.98806981e-03,
          -6.82026090e-04, -2.64776143e-04, 8.94746860e-04,
          -3.72225139e-03, -2.84949713e-03, 1.41919823e-04,
          2.24313611e-04, -5.61750401e-03, -1.85543683e-03,
          -6.34867291e-04, 2.27224920e-03, -1.45423692e-03,
          -5.15356020e-04, -1.77264004e-03, -1.46533494e-04,
          1.64499669e-03, -3.69174010e-03, -4.62094089e-03,
          -1.43375853e-03, -9.69047367e-04, 3.75070656e-03,
          3.47034517e-03, -1.60303654e-03, 1.58821256e-03,
          6.26805238e-04, -5.85507648e-03, -4.25895350e-03,
          -5.28835692e-04, 3.07113351e-03, 2.73722829e-03,
          2.19950313e-03, -1.39152317e-03, 2.28719157e-03,
          4.51132096e-03, -4.31542471e-03, 1.11814984e-03,
          7.09919143e-04, 3.14759999e-03, -4.26064711e-03,
          4.65840625e-04, 4.66493471e-03, 1.38786621e-04, 2.37653777e-03,
          4.09286615e-04, 1.00807967e-02, 3.30108497e-03,
          -2.07944866e-03, -1.46391327e-02, -5.77400578e-03,
          -3.03287013e-03, 2.73031741e-03, 3.81311518e-03,
          7.35104037e-03, -5.68530348e-04, 1.87985366e-03,
          5.03348885e-03, 6.00533281e-03, -9.17930622e-04,
          4.40459326e-03, 1.59131712e-03, 3.26764095e-03,
          -2.06442480e-03, 3.70988436e-03, 3.28597566e-03,
          -1.60270999e-03, -4.22383193e-03, 5.76178834e-04,
          -2.70002545e-03, 2.00720527e-03, 1.00329996e-03,
          -2.00043130e-03, 8.45021941e-03, 3.18404566e-03,
          -3.59762507e-03, -9.46324505e-03, -3.29600042e-03,
          -2.25563091e-03, 6.02822518e-03, 2.81692995e-03,
          5.28240111e-03, 5.06112259e-03, 2.13200576e-03,
          -4.01792116e-03, -1.12610345e-03, 1.77303213e-03,
          5.86345233e-03, -2.35155434e-03, 1.52399950e-03,
          -3.16444028e-04, 4.12471499e-03, -2.66559771e-03,
          -3.70477419e-03, -5.47071034e-03, -2.88041600e-04,
          1.47415465e-03, 6.20065071e-03, 2.50081136e-03,
          -1.05109042e-03, -3.09035764e-03, -7.29126809e-03,
          -7.41582830e-03, -7.39499647e-03, -3.11714387e-03,
          8.03767238e-03, 2.99836742e-03, 1.64640311e-03,
          -4.77277115e-03, -3.78637086e-03, -1.14872691e-03,
          -1.02165190e-03, -4.99069225e-03, 3.07338359e-03,
          5.30942343e-03, -3.84692196e-03, -1.24109001e-03,
          -7.88199995e-03, -5.38393017e-03, -3.46395816e-03,
          2.61795125e-03, -3.77163175e-03, -4.28492017e-03,
          2.18660152e-03, -2.13794503e-03, 2.94490089e-03,
          -4.35901247e-03, -1.01008592e-02, -6.56948984e-03,
          -4.80972091e-03, -6.90370379e-03, 1.07082701e-03,
          5.45883924e-03, -2.90422095e-03, -4.35073255e-03,
          -8.86149518e-03, -9.10292007e-03, 1.96324429e-03,
          9.21773491e-04, 6.79591962e-04, -5.11659682e-03,
          -1.55872537e-03, -9.12519358e-03, -1.11593753e-02,
          -1.10047404e-02, 3.68279871e-03, 4.21684119e-04,
          4.97320783e-04, -6.67410716e-03, -8.94417521e-03,
          -2.58428813e-03, 2.39214045e-03, 6.17013592e-03,
          3.38194217e-03, 3.52956657e-03, 2.78257881e-03,
          -5.30986907e-03, -1.06581887e-02, -1.27554797e-02,
          2.52042082e-03, 5.56521257e-03, 1.01955002e-02, 3.27923195e-03,
          -3.15400306e-03, 3.05741234e-03, 7.96768349e-04,
          -3.47906351e-03, -1.27138514e-02, 7.53969478e-04,
          -2.22483999e-03, -8.94567464e-03, -6.99909730e-03,
          1.49712223e-03, 4.15176200e-03, -2.73912359e-04,
          -4.60311351e-03, -1.13091487e-02, 3.17081274e-03,
          8.14165547e-03, 2.64031836e-03, -3.17564677e-03,
          2.61737662e-03, 4.87599848e-03, -2.96240347e-03,
          -1.08097624e-02, -9.16822627e-03, 2.12155911e-03,
          2.00440688e-03, 7.44758453e-03, 2.63295835e-03,
          -3.66829481e-04, 4.18828102e-03, -3.20333545e-03,
          -7.61628384e-03, -9.13887937e-03, -1.37508672e-03,
          -8.05354910e-04, 4.25251899e-03, -1.74071081e-03,
          5.78742707e-03, 4.42510843e-03, -3.38557898e-03,
          -2.98246392e-03, -4.06831037e-03, 2.52617477e-03,
          4.81762225e-03, 4.61228332e-03, 2.32819212e-03, 5.42315608e-03,
          5.91118215e-03, -3.34221963e-03, -1.31702365e-03,
          -7.39107374e-03, -1.04155811e-03, -6.58877147e-03,
          -2.28666491e-03, 5.24381874e-04, 6.78050518e-03,
          4.61120717e-03, 2.31717728e-04, -3.05870851e-03,
          -5.52909262e-03, -5.15966211e-03, -1.53458037e-03,
          1.68670586e-03, 4.77446336e-03, 1.29731279e-02, 3.09129409e-03,
          -2.72733020e-03, -4.64483770e-03, -4.89358930e-03,
          -9.22914688e-03, -2.81710085e-03, 1.27860612e-05,
          9.63631179e-03, 1.34480931e-02, 8.18997622e-03, 2.76759150e-03,
          5.29506127e-04, -5.70008578e-03, -2.54083285e-03,
          -9.58742388e-03, -3.76960752e-03, 6.47589238e-03,
          9.10288282e-03, 4.88972850e-03, 2.73726322e-03,
          -1.14321150e-03, -6.45553460e-03, -8.77066888e-03,
          -8.34910665e-03, -2.88757822e-03, 5.30101592e-03,
          1.04183210e-02, -9.74882743e-04, -3.23501672e-03,
          -4.38733073e-03, -5.17503126e-04, -7.38067506e-03,
          -2.20262166e-03, 6.91126392e-04, 4.24625166e-03,
          6.69316249e-03, -1.51026907e-04, 2.21593608e-03,
          -1.01928506e-03, 2.17409176e-03, -4.40770201e-03,
          5.74597856e-04, 2.16029794e-03, 4.49126260e-03, 6.95437146e-03,
          -7.79384340e-04, 2.30318005e-03, 2.86285253e-03,
          2.04569381e-03, -2.44038040e-03, -4.17284115e-04,
          2.98120896e-03, 5.01825288e-03, -1.63399425e-04,
          6.11080031e-04, 2.79028690e-03, -2.46534008e-03,
          5.42407576e-03, -2.85190367e-03, 2.99607520e-03,
          1.86928711e-03, 3.47118638e-03, -2.17762752e-03,
          -7.34373089e-03, -7.69252365e-04, 2.24487763e-03,
          2.82686460e-03, -5.69374673e-03, 2.97548785e-03,
          -4.18147130e-04, 7.95535278e-04, 4.00021876e-04,
          -5.32066496e-03, -4.26339312e-03, 7.92734500e-04,
          -1.16936443e-03, -7.40724336e-03, -1.24578679e-03,
          -9.02105472e-04, 3.17267212e-03, 2.36261659e-03,
          -8.57688137e-04, -1.52177620e-03, -4.90291393e-04,
          -2.80354434e-04, -4.88506351e-03, 3.10070836e-03,
          6.78738765e-03, 5.99144958e-03, 7.20001664e-03, 5.56222221e-04,
          -4.65351203e-03, 1.72569021e-03, 1.75549462e-03,
          -2.15326971e-03, 1.52483769e-03, 4.24495572e-03,
          6.47359667e-03, -2.14303983e-03, -6.32303441e-03,
          -4.35650488e-03, -4.06744424e-03, -6.41812477e-03,
          -4.48501669e-03, 1.77049625e-03, -1.06815668e-03,
          4.50798398e-04, -2.17200187e-03, -1.95219554e-03,
          1.07796432e-03, 2.74938066e-03, 3.86118714e-04,
          -6.45326742e-04, -1.90071971e-03, -2.99335667e-03,
          -1.71051943e-03, 3.17688519e-03, 5.33517450e-04,
          2.08870671e-03, -6.35222066e-04, 5.36132604e-03,
          4.42085555e-04, -2.86999904e-03, -2.75029626e-04,
          3.30390851e-03, 2.15182826e-03, -2.73248443e-04,
          6.90382021e-03, 3.32544977e-03, 4.49183164e-03, 1.32103602e-03,
          2.31067208e-03, -5.12806512e-03, -1.77749339e-03,
          -4.88097212e-05, 3.07719252e-04, 2.49767164e-03,
          5.57023380e-03, 1.91266590e-03, -1.83891435e-03,
          -5.15692029e-03, -6.31175796e-03, -4.17546462e-03,
          -4.39846423e-03, 1.78895681e-03, -4.98394365e-04,
          -3.09157069e-03, 4.00471780e-03, 4.27450147e-03,
          -1.90257223e-03, -5.50239347e-03, -3.72133963e-03,
          -2.10087467e-03, -1.73290342e-03, 2.55568884e-03,
          2.40469840e-03, 9.13768169e-03, 2.27875728e-03, 1.42788631e-03,
          -8.44201073e-03, -6.84633246e-03, -1.94805674e-03,
          -5.73650119e-04, 3.43062938e-03, 1.90807320e-03,
          8.32244661e-03, 5.96452039e-03, 2.06525461e-03,
          -8.73838458e-03, -5.16934029e-04, -3.80500266e-03,
          -6.93840091e-04, -2.22787517e-03, -3.58072319e-03,
          5.92685491e-03, 3.99564905e-03, 7.80987204e-04,
          -2.88771698e-03, 2.77418905e-04, 3.87602136e-03,
          -2.88670091e-03, -2.57559540e-03, -1.03181251e-03,
          4.59387898e-03, 3.68012988e-05, -6.07324950e-03,
          -8.46976507e-03, 3.34642292e-03, 2.43033306e-03,
          -2.92834855e-04, -4.60581767e-04, -6.43225620e-04,
          5.58999879e-03, 4.43503523e-04, 4.49911132e-03,
          -2.76333606e-03, 3.07849958e-03, 6.77666103e-04,
          1.96711349e-04, -9.98044619e-04, 1.93667394e-04,
          6.76845759e-03, 7.00427394e-04, -1.41685552e-04,
          -7.21832644e-03, 2.43483181e-03, 5.85586159e-03,
          9.10402101e-04, 4.15785052e-03, 1.91444741e-03, 1.04845697e-02,
          -5.17163833e-04, -4.42309678e-03, -9.27416235e-03,
          5.99985570e-03, 5.82002383e-03, 8.34181719e-03, 6.86536264e-03,
          -5.05675189e-03, -5.31264534e-03, -1.49974199e-02,
          -8.34934693e-03, -6.21916912e-03, 2.08784943e-03,
          1.84041960e-03, 3.14935204e-03, 5.42226201e-03, 3.46511439e-03,
          1.01530924e-02, 6.12316746e-03, -1.34285990e-04,
          -3.86968814e-03, 2.21832050e-03, 5.51147433e-03,
          1.30766528e-02, 1.21996822e-02, -1.17797672e-03,
          4.29678988e-03, -9.50480998e-03, -8.52674525e-03,
          -3.47245182e-03, 2.27271579e-03, 2.05868878e-03,
          7.58500025e-03, 8.01298115e-03, -6.55158423e-03,
          -3.18433833e-03, -8.36770516e-03, -3.68492352e-03,
          -3.79956630e-03, -5.44521632e-03, -9.01663036e-04,
          3.36344726e-03, 1.68271561e-03, -5.99184120e-03,
          9.02225543e-03, 4.77228593e-03, 9.66445194e-04,
          -3.36064585e-03, -7.81435613e-03, 2.66627688e-03,
          1.10738520e-02, 7.07318261e-03, -2.93474155e-03,
          -2.56122765e-03, -4.38279752e-03, -4.91166534e-03,
          -3.05458764e-03, 1.03606831e-03, 3.55464430e-03,
          3.13670281e-03, 3.54137225e-03, -8.41602124e-03,
          7.75657361e-03, 7.97000807e-03, 9.13423777e-04,
          -2.51326454e-03, 1.99871036e-04, -3.76868574e-03,
          -5.06036775e-03, -4.41966066e-03, -5.52017055e-03,
          5.56010660e-03, 4.55580698e-03, -2.83539033e-04,
          -3.07489885e-03, -2.42359680e-03, 1.76057545e-03,
          -1.90683117e-03, -3.09720822e-03, -3.37338145e-03,
          4.87532187e-03, 4.83030733e-03, 1.62812020e-03, 1.86596962e-03,
          8.14172265e-04, 1.91651448e-03, -2.28470191e-03,
          -2.32124282e-03, -8.56762379e-03, 3.85918393e-04,
          7.33966287e-03, 4.58453596e-03, -3.78642930e-03,
          3.31728254e-03, 5.77086350e-03, 1.57658441e-03, 1.05785381e-03,
          -1.48126157e-03, 4.56655864e-03, 2.02627853e-03,
          8.39602388e-03, 2.24834983e-03, 1.46039727e-03, 1.20878022e-03,
          -6.38387399e-04, 1.32082135e-03, 2.36325781e-03,
          2.20127357e-03, -2.06908895e-04, -2.35789455e-03,
          -4.74420469e-03, 1.45249465e-03, 3.74949025e-03,
          2.24693140e-04, 1.14677427e-03, 2.27135420e-03, 9.87432315e-04,
          -7.25719985e-03, -4.14301176e-03, 2.06420105e-03,
          8.83319415e-03, 4.61706938e-03, -1.57139249e-04,
          7.06910563e-04, 6.55010715e-03, 9.73516516e-03, 1.91557081e-03,
          5.45084057e-03, 9.57851880e-04, -1.28059229e-03,
          -1.73771114e-03, -2.99052452e-03, 6.42506464e-04,
          6.74187811e-03, 3.10894498e-03, 2.45524105e-03,
          -4.13538917e-04, 1.00010559e-02, 5.77368727e-03,
          1.38646620e-03, -9.18957230e-04, -2.04235269e-03,
          3.47678317e-03, 3.59471538e-04, -5.49085299e-03,
          -4.71740961e-03, 2.00918852e-03, 5.05963759e-03,
          3.64600186e-04, -5.19159110e-03, 2.40620505e-03,
          2.93862051e-03, -1.40763912e-03, -3.88835091e-03,
          1.17004511e-03, -2.68481555e-03, -2.11149175e-03,
          -1.62546945e-04, -8.12327955e-03, -1.98194175e-03,
          6.15140563e-03, 6.53356733e-03, 1.38465140e-03, 1.05887407e-03,
          9.02749784e-03, 5.11865225e-03, 6.96895178e-04,
          -4.93894750e-03, 8.59980573e-05, 5.33380127e-03,
          6.83648139e-03, 8.89197981e-04, 2.82390416e-03, 5.72735490e-03,
          2.55472283e-03, 4.52774018e-03, 3.56470700e-03, 4.74160304e-03,
          2.56172870e-03, 3.12447723e-04, -1.93053519e-03,
          -2.57237087e-04, -3.84334242e-03, -1.04070629e-03,
          2.58746464e-03, 6.15471648e-03, 4.44012415e-03, 6.94231456e-03,
          -1.35869440e-03, -3.74128926e-03, -4.19001048e-03,
          -5.52345533e-03, -4.24350798e-03, 2.60413741e-03,
          -5.04987023e-04, 2.69357557e-03, 5.68599207e-03,
          8.83049332e-03, 4.55234759e-03, 1.09350099e-03,
          -7.07289611e-04, 1.14772993e-03, 1.04951567e-03,
          7.16966949e-03, -2.62532558e-04, 4.86095902e-03,
          5.86465606e-03, 7.27884192e-03, 7.45738042e-04,
          -5.36262523e-03, -3.94779071e-03, 1.35399867e-04,
          6.39420934e-03, 2.16511940e-03, 8.67700856e-03, 2.69502704e-03,
          -4.63108486e-03, -5.18469512e-03, -2.27923691e-03,
          7.54663997e-05, -1.12592371e-03, 3.57641792e-03,
          5.05603477e-03, 1.13119101e-02, -7.02682592e-04,
          -9.33473278e-03, -9.49439593e-03, -5.06732706e-03,
          4.40684875e-04, 5.42289624e-03, 7.71194557e-03, 2.11476441e-03,
          5.93409501e-03, 2.79722293e-03, 4.11941251e-03, 1.34866324e-03,
          -1.20951398e-03, 2.91965622e-03, -1.26587704e-03,
          4.90217889e-03, 6.62758760e-03, 5.86877577e-03,
          -7.50935916e-03, -8.50840751e-03, -6.65583229e-03,
          -5.52188745e-03, -3.58235626e-03, -2.43884511e-03,
          -2.33978545e-03, -1.20525467e-04, 7.36098224e-03,
          -3.26783140e-03, -9.11203865e-03, -1.16605321e-02,
          -3.41007044e-03, 2.23565218e-03, -5.87779679e-04,
          -3.86324711e-03, -1.93774235e-03, 8.87473207e-03,
          9.74732917e-03, 1.13097287e-03, -2.14726408e-03,
          1.18008081e-03, 4.60262084e-03, -3.98048339e-03,
          4.14909562e-03, 5.86897088e-03, 7.17931706e-03,
          -3.99105158e-03, -8.15238431e-03, -1.04900645e-02,
          -5.64659061e-03, -6.13864232e-03, -2.03479268e-03,
          2.76775728e-03, 3.86771769e-03, 7.10870093e-03,
          -1.79431459e-03, -4.60486999e-03, -1.09537151e-02,
          -4.05138824e-03, -4.14494844e-03, -2.43468280e-03,
          -5.44736278e-04, -1.68120791e-03, -1.43193617e-03,
          -1.80844753e-03, -6.60234643e-03, -2.11549434e-03,
          3.65330651e-03, 4.89997386e-04, 1.92037947e-03, 5.57050714e-03,
          -2.74623686e-04, 1.88833128e-05, -8.90430622e-03,
          -7.68378237e-03, 7.59508694e-04, 6.59203669e-03,
          -2.98091676e-04, -3.77834635e-03, -9.33458097e-04,
          -4.96341940e-03, 5.85894845e-03, -6.18356047e-03,
          -6.83805719e-03, -8.16936605e-03, -2.54765665e-03,
          -2.29578209e-03, 3.37202894e-03, 3.49384663e-03,
          -4.48391493e-03, -2.00947863e-03, -8.39919038e-03,
          -7.53996894e-03, -7.86182005e-03, -1.16735813e-03,
          -3.43888714e-05, 6.45615673e-03, 7.75351468e-03,
          3.75267537e-03, 3.02638882e-03, -5.63297654e-03,
          -5.51619940e-03, 4.17533284e-03, 5.99535275e-03,
          3.05050169e-03, 1.05007342e-03, 2.99577648e-03, 1.98908558e-04,
          -2.47350871e-03, -7.79236713e-03, -3.04761459e-03,
          -1.76289550e-03, -1.77911052e-03, -4.57156508e-04,
          7.38860434e-03, 7.63063692e-03, -1.25840132e-03,
          -3.57968244e-03, -5.02766762e-03, -4.02241061e-03,
          -6.06920617e-03, 6.98918477e-04, 3.71288648e-03,
          2.76982435e-03, -9.31400864e-04, -8.99370387e-03,
          -1.12119224e-02, -1.28250299e-02, 5.98631159e-05,
          -2.55829375e-03, -1.31857162e-03, 1.42689201e-03,
          4.26222198e-03, 5.36018470e-03, 1.33611134e-03,
          -3.13580211e-04, -2.14778492e-03, 3.49700591e-03,
          -2.48775608e-03, -6.29971782e-03, -1.93146360e-03,
          5.50970482e-03, 3.10786511e-03, -4.98256786e-03,
          -2.73886835e-03, -3.75911314e-03, 4.64999350e-03,
          -1.29854714e-03, -1.52465689e-03, -7.58427719e-04,
          2.92238686e-03, -1.54579771e-04, -5.65368216e-03,
          -4.37377533e-03, -6.81511965e-03, 4.40827012e-03,
          9.46067667e-05, -2.60910764e-03, -3.39694717e-03,
          1.64599542e-03, 4.07243846e-04, -1.83857000e-03,
          -1.08008413e-03, -4.69217263e-03, -1.94901042e-03,
          1.49222580e-03, 2.85581150e-03, -4.00872494e-04,
          2.77611450e-03, 5.35660889e-03, 3.76133656e-04,
          -1.80691737e-03, -6.96554547e-03, 4.20348300e-03,
          2.91022618e-04, 2.51000887e-03, -2.29998352e-03,
          -4.65899240e-03, -8.03103438e-04, -1.16359256e-03,
          3.12232645e-03, -9.97117138e-04, 3.01460247e-03,
          2.45907204e-03, 1.58597145e-03, -3.33872507e-03,
          2.41869036e-03, 7.62852188e-03, 1.17576076e-03,
          -4.40079905e-03, -6.01562625e-03, 1.40275829e-03,
          3.20696854e-03, 5.57932677e-03, 2.36928347e-03,
          -2.30985880e-03, 1.45442039e-03, -4.26401384e-03,
          -2.29272922e-03, -3.93304043e-03, 2.50026793e-03,
          3.21712787e-03, 2.36414257e-03, -8.68479139e-04,
          -5.43422205e-03, -5.06013259e-03, -4.55221441e-03,
          5.37972432e-03, 5.13197156e-03, 4.56928462e-03, 1.63106888e-03,
